> initializing model parallel with size 8
> initializing ddp with size 1
> initializing pipeline with size 1
Loaded in 12.93 seconds
Print Params WQ:
0.000423431396484375
-0.0003528594970703125
0.00016307830810546875
0.00141143798828125
-0.0001506805419921875
0.0013580322265625
0.000835418701171875
-0.0002384185791015625
0.000133514404296875
0.0003376007080078125
0.00015354156494140625
-0.00018787384033203125
0.000431060791015625
-0.00433349609375
1.7404556274414062e-05
-0.0022430419921875
0.0002593994140625
0.00055694580078125
-1.621246337890625e-05
0.0003757476806640625
0.00018024444580078125
0.055419921875
-9.059906005859375e-05
0.000408172607421875
3.504753112792969e-05
0.00107574462890625
-0.00286865234375
-3.635883331298828e-06
-0.000362396240234375
0.00028228759765625
-0.0005340576171875
3.266334533691406e-05
0.0020904541015625
0.0003528594970703125
-7.534027099609375e-05
-0.000457763671875
-0.00040435791015625
-0.0002193450927734375
0.00014781951904296875
0.00099945068359375
-0.0017242431640625
0.000476837158203125
-0.000621795654296875
0.00024318695068359375
-0.00043487548828125
-0.001617431640625
0.046142578125
-6.818771362304688e-05
0.00439453125
-0.0003147125244140625
-0.0015716552734375
-0.00060272216796875
-0.000732421875
0.000102996826171875
0.000179290771484375
0.000247955322265625
-0.00022792816162109375
-0.00014400482177734375
0.002532958984375
2.86102294921875e-05
-0.00390625
-0.0019073486328125
-4.3392181396484375e-05
0.0003204345703125
-0.000232696533203125
-0.00012683868408203125
-0.000675201416015625
1.3589859008789062e-05
-0.00628662109375
0.0013885498046875
-0.0001049041748046875
0.0013427734375
-0.00034332275390625
0.000530242919921875
-0.001678466796875
-0.00023651123046875
0.000385284423828125
3.910064697265625e-05
0.00102996826171875
0.00042724609375
0.00012063980102539062
8.940696716308594e-06
-0.000247955322265625
-5.340576171875e-05
-0.00016880035400390625
-0.02978515625
1.800060272216797e-05
-0.000469207763671875
-0.00127410888671875
-9.894371032714844e-06
0.042724609375
0.0003452301025390625
7.915496826171875e-05
-0.0002841949462890625
0.0010986328125
-0.000621795654296875
-0.00014781951904296875
9.059906005859375e-05
0.0004520416259765625
-0.00058746337890625
0.00010347366333007812
0.0240478515625
-0.00016307830810546875
-9.059906005859375e-05
-0.0001659393310546875
-0.0007171630859375
0.0002498626708984375
-0.00031280517578125
0.0003604888916015625
-0.00028228759765625
-0.004058837890625
-0.00021076202392578125
-0.0012054443359375
-0.00012969970703125
0.0003948211669921875
0.00124359130859375
0.000370025634765625
0.00010585784912109375
0.000820159912109375
-0.001068115234375
-5.1975250244140625e-05
-0.0004425048828125
0.000194549560546875
-0.0004444122314453125
-0.000698089599609375
-5.0067901611328125e-05
-1.621246337890625e-05
-0.00012969970703125
-0.000598907470703125
0.0003376007080078125
-0.0007781982421875
0.00023937225341796875
-0.00109100341796875
-0.00017547607421875
-3.409385681152344e-05
-0.00122833251953125
0.000598907470703125
-0.0001277923583984375
0.01904296875
-0.00024318695068359375
0.000545501708984375
-3.24249267578125e-05
0.00067138671875
-0.000247955322265625
-0.034912109375
0.000331878662109375
0.00017833709716796875
0.00170135498046875
-0.000377655029296875
-0.00018215179443359375
-0.00104522705078125
-8.52346420288086e-06
0.000736236572265625
2.0742416381835938e-05
-0.00013065338134765625
0.01190185546875
-0.0003662109375
0.00030517578125
0.000400543212890625
-0.000492095947265625
-0.00034332275390625
0.0001506805419921875
0.000942230224609375
-0.00098419189453125
6.198883056640625e-06
-0.000186920166015625
-0.008544921875
0.0003223419189453125
-9.059906005859375e-05
-1.3336539268493652e-06
-0.0002651214599609375
-0.0002079010009765625
0.00037384033203125
0.000423431396484375
-1.0967254638671875e-05
0.0036163330078125
-0.00020122528076171875
1.5348196029663086e-06
-0.000301361083984375
0.0002193450927734375
-0.00121307373046875
-8.487701416015625e-05
0.0011138916015625
-0.00017642974853515625
0.0007476806640625
-7.915496826171875e-05
-0.00909423828125
-0.0003910064697265625
0.000560760498046875
-0.0002918243408203125
5.745887756347656e-05
0.000194549560546875
0.00014972686767578125
0.00051116943359375
0.004852294921875
0.00012063980102539062
-0.00299072265625
0.00135040283203125
-7.677078247070312e-05
-0.00017642974853515625
-1.2695789337158203e-05
9.298324584960938e-05
-0.000110626220703125
-0.001953125
0.000896453857421875
-0.0001087188720703125
-0.0003681182861328125
0.00014400482177734375
-0.0004138946533203125
-0.00124359130859375
0.00075531005859375
-0.0006561279296875
-0.0003108978271484375
-0.0004100799560546875
0.00102996826171875
-0.000335693359375
-0.000614166259765625
0.00014400482177734375
-0.00095367431640625
-0.00173187255859375
-4.6253204345703125e-05
0.0003032684326171875
-3.62396240234375e-05
6.866455078125e-05
0.0030975341796875
6.532669067382812e-05
0.0026397705078125
0.0022735595703125
0.00103759765625
0.0003376007080078125
-0.00104522705078125
0.0001506805419921875
-0.0003376007080078125
-0.00164031982421875
-0.000125885009765625
-0.0003509521484375
-5.078315734863281e-05
0.00116729736328125
0.000652313232421875
-0.002227783203125
-0.0001373291015625
0.0002765655517578125
-0.0009307861328125
1.519918441772461e-05
1.7642974853515625e-05
0.00013446807861328125
3.4809112548828125e-05
-0.31640625
0.000640869140625
0.000888824462890625
7.963180541992188e-05
-0.0003070831298828125
1.6927719116210938e-05
1.7404556274414062e-05
0.000888824462890625
0.00022220611572265625
-0.00098419189453125
6.628036499023438e-05
-1.3828277587890625e-05
-3.039836883544922e-06
0.000152587890625
-0.0001544952392578125
0.0010833740234375
0.000537872314453125
0.0003528594970703125
0.00150299072265625
-0.001007080078125
6.532669067382812e-05
-0.0002574920654296875
0.0012054443359375
-0.000614166259765625
-0.0025787353515625
-0.00121307373046875
0.0001811981201171875
-0.00011968612670898438
0.00156402587890625
-2.1696090698242188e-05
0.00469970703125
-4.100799560546875e-05
5.0961971282958984e-06
0.000232696533203125
-0.000110626220703125
-0.0007781982421875
-0.000652313232421875
0.000965118408203125
0.00022983551025390625
0.003326416015625
0.00030517578125
4.029273986816406e-05
0.0002613067626953125
-2.0384788513183594e-05
-0.00078582763671875
0.00011968612670898438
0.0010833740234375
2.9355287551879883e-06
-0.0002880096435546875
6.914138793945312e-05
-0.0002384185791015625
0.0001850128173828125
-0.015869140625
7.092952728271484e-06
-0.00067901611328125
0.00069427490234375
-3.427267074584961e-06
-0.000377655029296875
0.000537872314453125
0.00020122528076171875
-0.001678466796875
0.00022602081298828125
6.034970283508301e-07
-1.71661376953125e-05
0.0010223388671875
-0.000598907470703125
-0.0030670166015625
-1.0728836059570312e-06
1.2069940567016602e-06
0.00099945068359375
0.00180816650390625
0.0015869140625
0.00054168701171875
0.000812530517578125
-7.450580596923828e-06
3.075599670410156e-05
-5.888938903808594e-05
-0.00897216796875
0.00037384033203125
-0.000652313232421875
-4.6253204345703125e-05
1.4543533325195312e-05
5.793571472167969e-05
9.5367431640625e-05
0.004241943359375
8.869171142578125e-05
-0.00058746337890625
5.2928924560546875e-05
-0.000919342041015625
0.00064849853515625
-0.0004329681396484375
6.866455078125e-05
-0.00022602081298828125
-0.00124359130859375
-1.138448715209961e-05
0.00010967254638671875
-5.078315734863281e-05
0.0003948211669921875
7.963180541992188e-05
-0.000537872314453125
-0.000335693359375
0.0005340576171875
0.0018310546875
0.00057220458984375
-3.4809112548828125e-05
9.775161743164062e-05
-8.58306884765625e-05
1.5497207641601562e-06
-0.00054168701171875
5.078315734863281e-05
0.0013427734375
-0.000911712646484375
-0.0001373291015625
0.0001220703125
-9.34600830078125e-05
-0.0003070831298828125
-8.463859558105469e-06
-0.0019683837890625
2.47955322265625e-05
-0.00048828125
-0.000385284423828125
0.00032806396484375
-0.00075531005859375
3.170967102050781e-05
7.104873657226562e-05
-0.00032806396484375
0.00021266937255859375
-0.0025177001953125
-0.0002346038818359375
0.00069427490234375
0.00640869140625
-0.0007171630859375
0.00019168853759765625
0.00010204315185546875
-0.00078582763671875
-0.0005340576171875
-0.0006103515625
0.000247955322265625
0.000545501708984375
7.189810276031494e-07
-0.000881195068359375
0.00153350830078125
0.00014591217041015625
-4.124641418457031e-05
-1.7404556274414062e-05
0.000820159912109375
-0.000396728515625
-0.00141143798828125
8.821487426757812e-06
0.0003204345703125
0.00113677978515625
0.00518798828125
0.00079345703125
-0.0034942626953125
0.000553131103515625
-0.000392913818359375
9.489059448242188e-05
-0.001068115234375
-1.1026859283447266e-05
0.000133514404296875
0.00023555755615234375
-4.076957702636719e-05
-2.682209014892578e-06
-0.0002460479736328125
-0.0003414154052734375
0.00084686279296875
-0.0007476806640625
-0.0001697540283203125
-6.103515625e-05
-0.00823974609375
-0.0011138916015625
-4.0531158447265625e-06
-0.000102996826171875
-0.0034332275390625
0.00091552734375
0.0002193450927734375
0.0014190673828125
1.6808509826660156e-05
-0.00015735626220703125
-8.58306884765625e-05
8.535385131835938e-05
0.0001983642578125
0.00054168701171875
0.005615234375
0.00021076202392578125
0.000553131103515625
0.003173828125
-2.372264862060547e-05
-0.0002918243408203125
-0.00072479248046875
-0.000133514404296875
-3.6716461181640625e-05
-0.0003185272216796875
0.0003910064697265625
0.0003528594970703125
-0.000308990478515625
-0.000240325927734375
-0.00012111663818359375
-0.00091552734375
-0.00067901611328125
0.388671875
-0.01116943359375
0.00093841552734375
-0.0023193359375
-0.0002117156982421875
-0.00089263916015625
0.0025177001953125
-0.00113677978515625
0.000232696533203125
-0.00012683868408203125
-0.00010824203491210938
-5.030632019042969e-05
-4.267692565917969e-05
-0.0211181640625
9.965896606445312e-05
0.018310546875
-0.0002765655517578125
-0.0004177093505859375
-0.000370025634765625
-0.00013637542724609375
0.000396728515625
-0.059814453125
0.000568389892578125
-0.000736236572265625
-7.2479248046875e-05
-0.005584716796875
-0.00055694580078125
-0.00034332275390625
-0.00011396408081054688
0.00640869140625
-0.0003299713134765625
-0.000339508056640625
-0.00016880035400390625
0.00101470947265625
1.239776611328125e-05
0.002166748046875
-0.00054931640625
-0.00016021728515625
-0.00811767578125
-0.000743865966796875
-7.62939453125e-05
-4.839897155761719e-05
-5.14984130859375e-05
0.0006103515625
0.00017642974853515625
-2.3603439331054688e-05
0.000415802001953125
7.867813110351562e-05
-0.00028228759765625
0.000518798828125
0.0022430419921875
-0.0003261566162109375
-0.0001277923583984375
0.0079345703125
-0.00049591064453125
-1.9311904907226562e-05
0.00015163421630859375
-0.0001163482666015625
0.00225830078125
0.0001087188720703125
0.0011444091796875
0.0145263671875
-0.0004825592041015625
0.001251220703125
0.0001888275146484375
-0.0003414154052734375
0.0004253387451171875
0.00677490234375
0.000396728515625
0.000377655029296875
0.00010442733764648438
-6.771087646484375e-05
-0.0002899169921875
0.00069427490234375
-0.001129150390625
0.000835418701171875
0.000102996826171875
-0.008544921875
4.26173210144043e-06
-0.00011682510375976562
-0.0002841949462890625
1.4603137969970703e-05
-4.172325134277344e-05
-2.002716064453125e-05
-5.751848220825195e-06
8.821487426757812e-06
-0.00022983551025390625
5.334615707397461e-06
-0.002838134765625
7.152557373046875e-05
0.001556396484375
0.00135040283203125
-0.000705718994140625
-0.000431060791015625
-0.00176239013671875
-0.000545501708984375
-0.0003299713134765625
0.0001201629638671875
-0.00021457672119140625
-9.202957153320312e-05
-0.00013637542724609375
-0.00010538101196289062
8.106231689453125e-05
-0.002105712890625
-0.000537872314453125
0.000362396240234375
-0.000827789306640625
0.00014781951904296875
0.0004100799560546875
-0.00140380859375
0.00015926361083984375
-3.9577484130859375e-05
0.000667572021484375
1.0788440704345703e-05
2.6702880859375e-05
-0.000782012939453125
0.00023174285888671875
-0.000232696533203125
-4.673004150390625e-05
-0.00038909912109375
0.0003757476806640625
3.337860107421875e-06
0.003204345703125
0.000431060791015625
0.000316619873046875
-0.001708984375
4.8160552978515625e-05
0.000644683837890625
9.489059448242188e-05
-0.0011444091796875
-0.0030975341796875
0.00020503997802734375
0.0006561279296875
-8.535385131835938e-05
0.002593994140625
-0.000659942626953125
0.00016689300537109375
0.0016326904296875
3.5762786865234375e-05
-0.0002155303955078125
3.8623809814453125e-05
-0.00115203857421875
0.0003910064697265625
0.00115203857421875
-3.123283386230469e-05
0.0001544952392578125
0.0005950927734375
1.5735626220703125e-05
-1.1086463928222656e-05
0.00096893310546875
5.7697296142578125e-05
-0.00083160400390625
-0.00054168701171875
1.8596649169921875e-05
-0.000705718994140625
-0.00014781951904296875
-2.6464462280273438e-05
0.0003108978271484375
0.00010919570922851562
-0.00019168853759765625
-0.00070953369140625
0.002960205078125
0.0004730224609375
-0.0001354217529296875
-0.00022029876708984375
0.0003070831298828125
-0.0004062652587890625
-0.000537872314453125
-0.00013065338134765625
0.00040435791015625
0.0003261566162109375
-0.00013446807861328125
-0.000492095947265625
-0.00616455078125
-3.814697265625e-05
0.00040435791015625
-1.150369644165039e-05
0.0027008056640625
0.00154876708984375
0.0004119873046875
-0.0002536773681640625
-0.00016498565673828125
-0.00011396408081054688
-0.0017852783203125
0.0001239776611328125
0.000152587890625
0.00145721435546875
-1.1861324310302734e-05
-0.0035247802734375
-0.000308990478515625
-0.00086212158203125
0.0005645751953125
-0.00069427490234375
-0.00057220458984375
-0.00010633468627929688
-3.409385681152344e-05
4.57763671875e-05
-0.000965118408203125
0.00013065338134765625
0.0001697540283203125
0.00083160400390625
-0.00016880035400390625
0.000514984130859375
0.0005035400390625
4.553794860839844e-05
-1.9788742065429688e-05
-0.000324249267578125
2.3603439331054688e-05
0.00013065338134765625
-0.0004138946533203125
-0.0004253387451171875
-0.00057220458984375
-0.00023651123046875
0.000484466552734375
-0.00115966796875
-0.0036468505859375
-0.000308990478515625
0.007293701171875
-6.031990051269531e-05
3.933906555175781e-06
0.000156402587890625
0.000858306884765625
-0.0004825592041015625
0.0002765655517578125
0.00110626220703125
-0.0001678466796875
-0.0004787445068359375
-3.039836883544922e-05
-2.682209014892578e-06
-0.000164031982421875
1.2695789337158203e-05
-0.0029296875
-0.00087738037109375
-0.0137939453125
0.00064849853515625
0.000743865966796875
6.818771362304688e-05
0.000232696533203125
7.486343383789062e-05
-0.0001468658447265625
-0.005126953125
-0.00038909912109375
-0.0002498626708984375
-0.0002918243408203125
0.000431060791015625
-0.00046539306640625
-6.705522537231445e-06
-0.0008392333984375
3.159046173095703e-06
0.00139617919921875
-0.00189208984375
0.00142669677734375
-0.000797271728515625
-2.4139881134033203e-06
0.00089263916015625
0.000335693359375
-0.00058746337890625
-0.00011157989501953125
-0.0009765625
-0.00136566162109375
0.0011138916015625
-0.00130462646484375
-0.00176239013671875
0.00079345703125
0.003204345703125
3.904104232788086e-06
0.00167083740234375
6.532669067382812e-05
-8.392333984375e-05
0.0008697509765625
-0.0004634857177734375
-0.0003108978271484375
0.000659942626953125
-9.202957153320312e-05
-8.630752563476562e-05
-0.000244140625
-3.3855438232421875e-05
2.288818359375e-05
0.000751495361328125
-0.00019741058349609375
0.00115966796875
9.298324584960938e-05
-6.628036499023438e-05
-0.000576019287109375
0.00079345703125
1.2993812561035156e-05
0.00128173828125
0.00013256072998046875
-0.00010395050048828125
-0.00119781494140625
-0.00018310546875
0.00019550323486328125
0.000675201416015625
0.000682830810546875
-5.078315734863281e-05
-0.0020904541015625
0.00070953369140625
-0.0004405975341796875
-0.003387451171875
-2.3245811462402344e-05
0.000186920166015625
-0.00057220458984375
0.000308990478515625
-8.106231689453125e-05
-2.4437904357910156e-05
0.0006866455078125
-3.886222839355469e-05
-0.0028228759765625
-0.0001049041748046875
-0.0021209716796875
-4.172325134277344e-06
0.00052642822265625
0.00104522705078125
-0.0003643035888671875
-0.00022602081298828125
0.00012969970703125
-0.0019683837890625
0.00104522705078125
0.00075531005859375
0.00011777877807617188
4.6253204345703125e-05
-0.00148773193359375
0.000560760498046875
-0.0002574920654296875
0.00022411346435546875
-0.0002040863037109375
-1.7642974853515625e-05
0.00020122528076171875
-0.00019550323486328125
0.0003299713134765625
-0.00096893310546875
0.0001659393310546875
7.808208465576172e-06
0.000423431396484375
-1.6689300537109375e-05
-2.0503997802734375e-05
5.692243576049805e-06
-0.00013256072998046875
-0.0015106201171875
0.00125885009765625
-4.112720489501953e-06
0.00019550323486328125
0.0011138916015625
-0.0003833770751953125
-0.00096893310546875
-0.0003299713134765625
-6.914138793945312e-05
-0.000270843505859375
-0.0018463134765625
-7.05718994140625e-05
-0.0001888275146484375
-0.0002613067626953125
0.00018978118896484375
0.0003185272216796875
1.3828277587890625e-05
-0.0009918212890625
-0.00067138671875
-0.00015926361083984375
-0.00115203857421875
0.00014019012451171875
-0.00021457672119140625
9.012222290039062e-05
-7.724761962890625e-05
0.000186920166015625
-0.00023365020751953125
-0.00034332275390625
1.4901161193847656e-06
0.00072479248046875
-0.0029754638671875
0.017578125
-3.0994415283203125e-05
-4.023313522338867e-06
7.581710815429688e-05
8.165836334228516e-06
-0.000865936279296875
-0.000278472900390625
-0.00153350830078125
8.702278137207031e-06
-0.0002803802490234375
0.0024871826171875
-0.0004062652587890625
-0.0025634765625
-6.079673767089844e-05
0.000621795654296875
-0.000400543212890625
-0.00011110305786132812
-0.001678466796875
2.4557113647460938e-05
0.0006256103515625
0.0003070831298828125
0.0035552978515625
-0.00016498565673828125
-5.221366882324219e-05
0.0012359619140625
-0.000789642333984375
0.0002117156982421875
0.000705718994140625
5.1975250244140625e-05
-5.3882598876953125e-05
-0.0008087158203125
0.00020694732666015625
4.00543212890625e-05
-3.471970558166504e-06
0.005859375
0.0019683837890625
3.361701965332031e-05
0.000606536865234375
0.0030670166015625
-0.00010013580322265625
-0.00115203857421875
0.0001983642578125
-0.0003147125244140625
0.00058746337890625
-3.7401914596557617e-06
5.7220458984375e-05
-9.298324584960938e-06
-0.000186920166015625
0.000263214111328125
0.00110626220703125
-0.000335693359375
3.075599670410156e-05
-0.0004177093505859375
-0.0003662109375
-0.0001583099365234375
-0.002197265625
0.000690460205078125
-8.392333984375e-05
0.000141143798828125
9.424984455108643e-07
-0.0004100799560546875
1.537799835205078e-05
-0.000202178955078125
-0.00031280517578125
0.00010824203491210938
0.00016307830810546875
-1.1444091796875e-05
-0.00023651123046875
0.000972747802734375
-2.6226043701171875e-06
-2.6702880859375e-05
-4.2438507080078125e-05
0.000209808349609375
0.0004215240478515625
0.000457763671875
-0.00070953369140625
0.00011968612670898438
0.0003604888916015625
0.00080108642578125
0.000698089599609375
0.0029449462890625
0.000286102294921875
-0.00390625
6.914138793945312e-05
3.600120544433594e-05
0.0003681182861328125
0.0003032684326171875
-0.00084686279296875
0.000553131103515625
-7.510185241699219e-06
0.000782012939453125
0.00017547607421875
-6.341934204101562e-05
-0.00141143798828125
-0.00011348724365234375
0.00043487548828125
-0.0003376007080078125
-3.3974647521972656e-06
-0.00010633468627929688
0.0019378662109375
0.000621795654296875
0.0005035400390625
-0.0003509521484375
-0.0031585693359375
0.000194549560546875
-0.000308990478515625
0.00075531005859375
-0.00020599365234375
-0.00128173828125
-8.0108642578125e-05
-0.01092529296875
-0.00022029876708984375
-2.0503997802734375e-05
-2.2411346435546875e-05
-0.0012359619140625
0.0001010894775390625
-0.00168609619140625
-0.0005340576171875
-0.0012664794921875
9.107589721679688e-05
0.0023956298828125
-0.002960205078125
0.00087738037109375
-0.0004100799560546875
-0.0003871917724609375
0.0004215240478515625
-5.3882598876953125e-05
0.000659942626953125
0.0002498626708984375
5.155801773071289e-06
-2.7120113372802734e-06
4.935264587402344e-05
-1.4126300811767578e-05
0.0015411376953125
-0.00011873245239257812
-0.0011749267578125
0.00054168701171875
0.0003509521484375
0.0006256103515625
-0.00141143798828125
-0.000247955322265625
-4.673004150390625e-05
7.677078247070312e-05
0.0020904541015625
-7.867813110351562e-06
2.8252601623535156e-05
0.0002117156982421875
-0.002105712890625
0.00101470947265625
-4.792213439941406e-05
-0.0011749267578125
-0.00023937225341796875
-0.000194549560546875
-0.000286102294921875
-0.00107574462890625
0.0005340576171875
0.0025787353515625
-0.00038909912109375
-2.300739288330078e-05
-0.0004177093505859375
3.4332275390625e-05
0.0004405975341796875
-0.000362396240234375
8.7738037109375e-05
-0.00017070770263671875
-0.00028228759765625
-0.00011396408081054688
-0.014404296875
0.00049591064453125
1.2516975402832031e-05
0.0004787445068359375
7.104873657226562e-05
1.5139579772949219e-05
-8.0108642578125e-05
0.0010528564453125
7.867813110351562e-05
-0.000614166259765625
-9.72747802734375e-05
-0.00018310546875
-0.000530242919921875
0.00010013580322265625
-1.5869736671447754e-06
-3.546476364135742e-06
-0.0003681182861328125
-0.00146484375
-0.0014801025390625
-0.000431060791015625
0.00020885467529296875
0.00014495849609375
-0.00762939453125
-2.300739288330078e-05
0.0003299713134765625
0.0004673004150390625
0.005645751953125
-0.0015869140625
9.96515154838562e-08
-9.298324584960938e-05
0.0006561279296875
-0.00152587890625
4.559755325317383e-06
0.00035858154296875
-0.00013446807861328125
-0.000827789306640625
-0.0006256103515625
-0.0005035400390625
-0.001129150390625
-3.528594970703125e-05
0.0003986358642578125
0.003997802734375
0.0005340576171875
0.000392913818359375
-2.8371810913085938e-05
0.0033111572265625
0.0003643035888671875
-3.0517578125e-05
-0.0003814697265625
-0.00024318695068359375
-0.000377655029296875
-3.337860107421875e-05
-0.0003223419189453125
0.0010223388671875
0.0002765655517578125
0.0001583099365234375
0.04541015625
0.000453948974609375
1.6927719116210938e-05
4.738569259643555e-06
0.000553131103515625
-0.00021457672119140625
-0.0004425048828125
-4.976987838745117e-06
-0.000492095947265625
0.00023174285888671875
-0.0003108978271484375
-0.000621795654296875
5.5789947509765625e-05
0.00087738037109375
-0.00107574462890625
-2.2172927856445312e-05
0.00119781494140625
0.0003032684326171875
0.0005645751953125
0.00018787384033203125
0.0004177093505859375
0.000637054443359375
-0.00115966796875
7.104873657226562e-05
0.000701904296875
0.00022029876708984375
0.0004825592041015625
-0.0247802734375
0.000827789306640625
-0.00018405914306640625
8.678436279296875e-05
0.0009002685546875
-0.00029754638671875
0.00016117095947265625
-0.0004138946533203125
3.266334533691406e-05
0.0004482269287109375
0.0006103515625
0.001312255859375
0.0021514892578125
5.054473876953125e-05
3.743171691894531e-05
9.5367431640625e-06
-0.00020503997802734375
-0.0015411376953125
0.00058746337890625
7.152557373046875e-05
-0.005767822265625
-0.0006866455078125
-0.0002899169921875
-0.00024127960205078125
0.00072479248046875
-7.82012939453125e-05
0.000453948974609375
0.003662109375
-0.00035858154296875
-0.0011138916015625
0.002899169921875
-0.00018215179443359375
-0.00051116943359375
0.00010442733764648438
-0.00015163421630859375
-0.00069427490234375
-0.00182342529296875
-4.947185516357422e-06
-0.000946044921875
0.00860595703125
-0.0003261566162109375
0.0004119873046875
0.0003223419189453125
-0.00015354156494140625
-0.000514984130859375
-6.467103958129883e-06
-0.00017261505126953125
0.0004138946533203125
-0.000850677490234375
2.9206275939941406e-05
-0.00021648406982421875
-0.0009307861328125
0.00079345703125
-0.0003910064697265625
0.00016498565673828125
-0.0023040771484375
-0.0003490447998046875
0.0002079010009765625
-0.00072479248046875
-0.0003528594970703125
1.811981201171875e-05
0.0003986358642578125
-0.00091552734375
4.315376281738281e-05
-0.00020694732666015625
-3.8623809814453125e-05
3.6716461181640625e-05
-0.0014495849609375
0.000576019287109375
-0.00213623046875
0.00055694580078125
-0.0022430419921875
-3.147125244140625e-05
-0.00171661376953125
0.0001163482666015625
-0.008544921875
0.00128936767578125
-0.00014209747314453125
2.86102294921875e-06
9.34600830078125e-05
-0.0013427734375
1.33514404296875e-05
-0.0008392333984375
0.00021457672119140625
2.1338462829589844e-05
7.486343383789062e-05
1.6570091247558594e-05
-1.4901161193847656e-05
1.9073486328125e-05
0.06884765625
-0.0003719329833984375
0.00051116943359375
-0.000293731689453125
0.00013065338134765625
-0.0003719329833984375
0.0003070831298828125
0.00084686279296875
-8.440017700195312e-05
0.000919342041015625
-9.870529174804688e-05
-0.000736236572265625
8.440017700195312e-05
6.67572021484375e-05
-0.000484466552734375
0.0009765625
-0.0439453125
0.000263214111328125
-1.8715858459472656e-05
0.00060272216796875
-0.00160980224609375
-0.001007080078125
-0.0007476806640625
-0.000888824462890625
-0.000762939453125
2.6345252990722656e-05
0.001678466796875
0.0027923583984375
0.00011205673217773438
-0.00138092041015625
2.0265579223632812e-05
0.0003299713134765625
-0.0008392333984375
-0.000370025634765625
-0.0017852783203125
0.00019550323486328125
0.0002918243408203125
0.000141143798828125
0.000331878662109375
-3.5762786865234375e-05
-0.00457763671875
0.0023345947265625
0.000400543212890625
1.3053417205810547e-05
-0.00017547607421875
-0.000614166259765625
5.692243576049805e-06
-0.0086669921875
0.00193023681640625
-0.00177001953125
2.872943878173828e-05
0.0007476806640625
-0.002593994140625
-0.0001010894775390625
-0.00095367431640625
-0.00118255615234375
-0.0010528564453125
-0.0003452301025390625
0.0003986358642578125
0.00023937225341796875
-0.00103759765625
0.00093841552734375
-0.0002765655517578125
0.000152587890625
0.0001697540283203125
0.000118255615234375
2.2530555725097656e-05
8.58306884765625e-05
-0.00012063980102539062
-0.0015869140625
7.43865966796875e-05
-0.00011491775512695312
-0.001556396484375
-0.000629425048828125
-3.814697265625e-05
-0.00037384033203125
0.0002269744873046875
0.0008392333984375
0.0029449462890625
-0.00022220611572265625
-0.0001811981201171875
-8.535385131835938e-05
0.00013446807861328125
-0.00014400482177734375
0.000911712646484375
0.000675201416015625
0.00012302398681640625
3.218650817871094e-05
-4.6253204345703125e-05
0.00107574462890625
7.009506225585938e-05
0.0003681182861328125
0.000885009765625
0.00029754638671875
-0.00042724609375
2.950429916381836e-06
1.3530254364013672e-05
3.838539123535156e-05
0.00070953369140625
2.8848648071289062e-05
0.00176239013671875
-8.106231689453125e-05
-0.0006256103515625
-0.018310546875
0.00048828125
-2.002716064453125e-05
1.9431114196777344e-05
0.00014591217041015625
-0.00013256072998046875
0.0012359619140625
-2.8967857360839844e-05
0.0016937255859375
0.0006561279296875
0.00028228759765625
-0.00154876708984375
-9.98377799987793e-07
-1.9073486328125e-05
-0.00018596649169921875
0.00012111663818359375
-0.00029754638671875
0.001220703125
0.0003204345703125
0.0002498626708984375
0.00015354156494140625
-1.621246337890625e-05
-0.00046539306640625
-0.00011587142944335938
0.000720977783203125
0.00014781951904296875
-0.001861572265625
7.62939453125e-05
0.0003108978271484375
0.00028228759765625
0.001251220703125
0.000827789306640625
-3.337860107421875e-05
0.0169677734375
-0.0023345947265625
8.96453857421875e-05
0.00024318695068359375
-5.8650970458984375e-05
-1.33514404296875e-05
4.5299530029296875e-05
2.574920654296875e-05
-0.0005950927734375
-0.00099945068359375
6.8247318267822266e-06
9.5367431640625e-05
-0.0017547607421875
7.104873657226562e-05
-0.0003376007080078125
0.00023937225341796875
-0.001312255859375
7.063150405883789e-06
-0.00054931640625
-0.000392913818359375
-0.00063323974609375
-2.110004425048828e-05
-0.00390625
-0.00017070770263671875
0.000820159912109375
-0.000415802001953125
0.00106048583984375
-0.00110626220703125
0.00021076202392578125
1.7404556274414062e-05
0.0004634857177734375
0.00726318359375
0.00011682510375976562
0.000873565673828125
-0.00106048583984375
0.0020904541015625
0.00408935546875
-1.1861324310302734e-05
-0.000492095947265625
0.00022220611572265625
3.600120544433594e-05
0.00048065185546875
0.00042724609375
0.002838134765625
7.343292236328125e-05
0.0004062652587890625
-0.0013275146484375
-0.00058746337890625
0.00017833709716796875
-0.0008392333984375
-0.000408172607421875
-0.00046539306640625
-1.043081283569336e-05
-1.4454126358032227e-06
0.000133514404296875
0.000789642333984375
0.000911712646484375
-0.00738525390625
-3.993511199951172e-06
-0.0007476806640625
6.246566772460938e-05
-0.0004177093505859375
0.0004215240478515625
-0.000560760498046875
-4.2438507080078125e-05
4.38690185546875e-05
-3.62396240234375e-05
0.000335693359375
0.00138092041015625
-1.952052116394043e-06
0.000385284423828125
5.8650970458984375e-05
0.004486083984375
0.000141143798828125
-1.3709068298339844e-05
-0.00010633468627929688
-2.7060508728027344e-05
0.0018463134765625
0.00013065338134765625
0.00014972686767578125
-0.000576019287109375
3.7670135498046875e-05
-0.00182342529296875
-0.00083160400390625
-0.0002040863037109375
-0.00115966796875
0.006744384765625
0.00080108642578125
0.00010776519775390625
-9.298324584960938e-06
1.8477439880371094e-05
-0.000225067138671875
0.0002384185791015625
-0.000858306884765625
0.0017547607421875
3.743171691894531e-05
-0.0004100799560546875
7.510185241699219e-06
-1.8358230590820312e-05
0.0002880096435546875
0.00013446807861328125
-2.181529998779297e-05
0.0001354217529296875
-1.5854835510253906e-05
-0.00016498565673828125
2.5153160095214844e-05
-8.7738037109375e-05
0.00122833251953125
-0.0015106201171875
0.00011491775512695312
1.8477439880371094e-05
0.00029754638671875
0.00011920928955078125
-0.0001354217529296875
0.000762939453125
3.24249267578125e-05
-0.0004520416259765625
-0.000881195068359375
-0.000377655029296875
0.001373291015625
0.0004100799560546875
0.0009002685546875
0.00025177001953125
0.020751953125
-0.000431060791015625
0.00028228759765625
-0.0087890625
-0.0003910064697265625
-7.063150405883789e-06
-0.00140380859375
7.331371307373047e-06
4.8160552978515625e-05
1.3053417205810547e-05
0.000751495361328125
0.0003147125244140625
-9.72747802734375e-05
-0.0010223388671875
0.00060272216796875
0.000732421875
0.000499725341796875
-0.000598907470703125
-0.001373291015625
-0.000370025634765625
1.0609626770019531e-05
-7.009506225585938e-05
0.00012683868408203125
-0.000774383544921875
0.0027923583984375
0.000888824462890625
-0.00115203857421875
-0.001129150390625
-0.00021839141845703125
-0.002838134765625
0.00011491775512695312
0.01177978515625
0.0003490447998046875
0.0185546875
-8.249282836914062e-05
0.00262451171875
-0.00020313262939453125
-0.01171875
0.00040435791015625
-3.600120544433594e-05
-0.0002956390380859375
1.1920928955078125e-05
0.000247955322265625
0.000629425048828125
0.00048828125
0.0003604888916015625
-0.00013446807861328125
-8.881092071533203e-06
0.0004825592041015625
0.001068115234375
-0.0002288818359375
-0.000244140625
-0.0001049041748046875
0.000820159912109375
-5.340576171875e-05
0.0001239776611328125
-4.00543212890625e-05
0.00064849853515625
-0.00159454345703125
1.7404556274414062e-05
-3.886222839355469e-05
0.000942230224609375
-0.0283203125
0.00154876708984375
-0.000461578369140625
-0.00016498565673828125
0.0004863739013671875
-1.5616416931152344e-05
-0.00274658203125
0.000171661376953125
4.982948303222656e-05
7.200241088867188e-05
0.00037384033203125
0.00032806396484375
0.000732421875
-0.0002079010009765625
-0.00025177001953125
-4.100799560546875e-05
-0.00092315673828125
-8.881092071533203e-06
-1.3053417205810547e-05
0.0004138946533203125
-0.000545501708984375
6.628036499023438e-05
-0.00035858154296875
-0.00029754638671875
0.000492095947265625
9.298324584960938e-06
-0.00107574462890625
0.000339508056640625
3.24249267578125e-05
-0.0002422332763671875
-4.857778549194336e-06
8.046627044677734e-06
-7.420778274536133e-06
9.393692016601562e-05
-0.0002460479736328125
-0.00185394287109375
-0.00174713134765625
0.0002613067626953125
3.647804260253906e-05
-9.059906005859375e-05
0.0002880096435546875
0.0001354217529296875
5.340576171875e-05
0.000545501708984375
0.00099945068359375
-0.002899169921875
-6.437301635742188e-05
-0.00017833709716796875
-0.0004596710205078125
-0.000965118408203125
1.3828277587890625e-05
0.00012493133544921875
-0.0020751953125
0.0002193450927734375
-0.0003528594970703125
-0.00125885009765625
0.004913330078125
0.0009765625
-0.004058837890625
4.100799560546875e-05
0.003875732421875
0.0004482269287109375
0.000797271728515625
-7.295608520507812e-05
5.602836608886719e-05
9.393692016601562e-05
0.0010528564453125
-0.00064849853515625
7.724761962890625e-05
0.00118255615234375
0.00040435791015625
0.00138092041015625
0.00031280517578125
0.005279541015625
0.000701904296875
-0.00043487548828125
3.0279159545898438e-05
8.678436279296875e-05
-0.000461578369140625
-0.000579833984375
-3.457069396972656e-05
6.580352783203125e-05
9.775161743164062e-05
-0.00139617919921875
9.34600830078125e-05
-0.00012969970703125
-0.00011157989501953125
8.463859558105469e-06
4.9591064453125e-05
1.5616416931152344e-05
-7.343292236328125e-05
0.0001811981201171875
5.507469177246094e-05
-0.00011396408081054688
-0.00030517578125
0.000606536865234375
-0.020263671875
-0.0021209716796875
-0.0006103515625
2.8908252716064453e-06
0.00189208984375
0.00010156631469726562
-0.001129150390625
-0.0001888275146484375
-0.0035858154296875
0.000217437744140625
-0.0010528564453125
-0.0003871917724609375
-0.0002880096435546875
1.239776611328125e-05
0.00010156631469726562
0.000606536865234375
-2.491474151611328e-05
-0.000637054443359375
-2.205371856689453e-05
0.00116729736328125
1.704692840576172e-05
0.00186920166015625
-0.0002593994140625
-0.0013885498046875
-0.00017642974853515625
0.0016937255859375
1.6093254089355469e-06
0.0031280517578125
0.0008697509765625
-0.0001926422119140625
-0.000247955322265625
1.3589859008789062e-05
-0.0001087188720703125
2.8967857360839844e-05
-0.00054931640625
-0.00019931793212890625
4.57763671875e-05
0.0001544952392578125
-0.000885009765625
-9.059906005859375e-05
0.0005035400390625
-0.00012969970703125
0.00016117095947265625
-0.0010833740234375
7.033348083496094e-06
-0.0001125335693359375
-0.002166748046875
-0.0004329681396484375
-0.0001811981201171875
1.1742115020751953e-05
0.0021209716796875
0.0004062652587890625
0.000579833984375
2.086162567138672e-05
-0.00188446044921875
0.004180908203125
0.000698089599609375
-0.0003662109375
0.00188446044921875
-0.000957489013671875
-0.0012359619140625
-0.0018157958984375
0.00089263916015625
-0.000453948974609375
0.00112152099609375
0.000537872314453125
0.00040435791015625
-0.00140380859375
0.00048828125
-0.00189208984375
-9.822845458984375e-05
0.0002841949462890625
0.0020751953125
-6.8247318267822266e-06
0.00022125244140625
-0.000972747802734375
7.43865966796875e-05
-0.0003795623779296875
0.000640869140625
-9.870529174804688e-05
0.00075531005859375
-0.000186920166015625
0.0024566650390625
-1.2889504432678223e-06
-0.0029449462890625
0.0001373291015625
9.250640869140625e-05
-8.7738037109375e-05
-0.000812530517578125
-0.00018405914306640625
-0.0006561279296875
4.6253204345703125e-05
-0.0003376007080078125
9.584426879882812e-05
-0.0002613067626953125
0.0003528594970703125
3.528594970703125e-05
-0.00064849853515625
5.435943603515625e-05
0.00086212158203125
0.00732421875
2.6106834411621094e-05
-0.00034332275390625
0.000843048095703125
-0.00012302398681640625
-1.2516975402832031e-05
-7.486343383789062e-05
-0.000736236572265625
0.006134033203125
-0.0003604888916015625
3.8623809814453125e-05
0.0003337860107421875
-0.000431060791015625
1.6808509826660156e-05
-0.0003566741943359375
2.9325485229492188e-05
0.000698089599609375
-0.002685546875
-1.1861324310302734e-05
-9.441375732421875e-05
2.9087066650390625e-05
-4.553794860839844e-05
-0.0010528564453125
-0.00017261505126953125
0.0004177093505859375
0.000629425048828125
-7.724761962890625e-05
0.0003509521484375
-0.00012493133544921875
0.000316619873046875
-8.344650268554688e-05
-0.002685546875
0.000946044921875
0.0034637451171875
0.00012302398681640625
0.000186920166015625
5.125999450683594e-05
-0.0001468658447265625
-0.0003719329833984375
-0.000423431396484375
-0.00030517578125
0.0004291534423828125
-0.0003833770751953125
-0.00104522705078125
-9.1552734375e-05
0.00011777877807617188
0.01165771484375
-0.0013275146484375
-0.00038909912109375
-0.001129150390625
-0.00104522705078125
0.000682830810546875
9.1552734375e-05
-0.00017070770263671875
0.00016498565673828125
0.000934600830078125
5.7697296142578125e-05
-0.000576019287109375
-0.00049591064453125
-1.7762184143066406e-05
-5.2928924560546875e-05
0.00020503997802734375
0.00022220611572265625
0.00054168701171875
0.002105712890625
-0.0004634857177734375
0.00017261505126953125
0.001495361328125
0.00012302398681640625
0.00106048583984375
-3.0517578125e-05
6.961822509765625e-05
-6.031990051269531e-05
3.647804260253906e-05
-0.00014495849609375
0.000415802001953125
0.00021648406982421875
-0.001434326171875
0.0002155303955078125
2.9921531677246094e-05
-0.0004100799560546875
4.0531158447265625e-05
-0.000286102294921875
7.200241088867188e-05
-0.0003185272216796875
0.00408935546875
-0.000209808349609375
-0.00048828125
0.003082275390625
-7.987022399902344e-06
0.00030517578125
0.0024871826171875
0.00201416015625
-0.00012493133544921875
-0.00057220458984375
-0.000240325927734375
-0.000244140625
0.00274658203125
7.915496826171875e-05
0.00014495849609375
-0.00012159347534179688
0.001373291015625
-5.9604644775390625e-05
-0.00141143798828125
0.00016880035400390625
-0.0002574920654296875
-3.0159950256347656e-05
-0.00010061264038085938
0.0004444122314453125
-0.000560760498046875
0.0001697540283203125
-0.0004177093505859375
0.0001163482666015625
8.821487426757812e-06
-0.000152587890625
0.00035858154296875
1.4781951904296875e-05
-0.000690460205078125
0.00015735626220703125
7.534027099609375e-05
-0.000560760498046875
-0.00013828277587890625
0.0003757476806640625
-0.0010833740234375
6.818771362304688e-05
-0.0009307861328125
-0.0009765625
0.007537841796875
0.00099945068359375
-1.3172626495361328e-05
0.00010251998901367188
-0.0005035400390625
5.1975250244140625e-05
0.0021820068359375
0.0005035400390625
-0.00125885009765625
-0.0205078125
-0.000843048095703125
0.00010156631469726562
-5.1975250244140625e-05
0.0002651214599609375
0.01409912109375
0.00020599365234375
-2.86102294921875e-05
-0.0004482269287109375
-0.0927734375
0.00482177734375
-0.0002269744873046875
-0.0004425048828125
0.000385284423828125
0.00013446807861328125
9.417533874511719e-06
-0.0002079010009765625
9.870529174804688e-05
-0.1162109375
2.300739288330078e-05
9.107589721679688e-05
0.0003204345703125
0.000888824462890625
-0.002166748046875
-0.000125885009765625
-0.000339508056640625
2.7418136596679688e-06
-1.2576580047607422e-05
7.677078247070312e-05
0.00665283203125
-0.000415802001953125
-0.000762939453125
-4.863739013671875e-05
-0.0003070831298828125
-0.0025177001953125
0.000949859619140625
9.489059448242188e-05
-0.00020503997802734375
-5.125999450683594e-05
5.340576171875e-05
-0.00012302398681640625
4.7206878662109375e-05
0.00012063980102539062
-6.467103958129883e-06
0.000225067138671875
-0.0025177001953125
0.00099945068359375
-0.0023040771484375
0.00079345703125
-5.7697296142578125e-05
-0.0021514892578125
0.00010156631469726562
-2.4557113647460938e-05
5.513429641723633e-06
-0.00011587142944335938
0.00052642822265625
9.059906005859375e-05
0.000789642333984375
-0.000888824462890625
0.0002765655517578125
0.0004138946533203125
-4.124641418457031e-05
0.00060272216796875
-0.0033721923828125
-0.000728607177734375
0.0004749298095703125
0.00011777877807617188
2.0742416381835938e-05
0.0002460479736328125
-3.7066638469696045e-07
0.0152587890625
-0.000804901123046875
-0.000133514404296875
0.00035858154296875
0.0014190673828125
0.00052642822265625
-2.384185791015625e-07
0.000194549560546875
-0.0002899169921875
0.0011444091796875
6.580352783203125e-05
-2.8252601623535156e-05
0.00021839141845703125
-0.00019550323486328125
-0.0002880096435546875
1.4185905456542969e-05
-5.6743621826171875e-05
-0.00012493133544921875
2.7298927307128906e-05
-1.621246337890625e-05
0.00010538101196289062
0.00016880035400390625
-0.000766754150390625
0.0003414154052734375
0.00042724609375
-0.000690460205078125
0.000522613525390625
0.000476837158203125
0.00016117095947265625
-0.00075531005859375
3.933906555175781e-05
-9.202957153320312e-05
-0.00110626220703125
-0.0011444091796875
-0.000553131103515625
-0.00019741058349609375
-0.0004482269287109375
0.000701904296875
0.0004291534423828125
-0.000518798828125
-5.269050598144531e-05
-0.000415802001953125
-5.841255187988281e-05
-0.00098419189453125
0.000629425048828125
0.00098419189453125
0.00091552734375
-0.00012063980102539062
-0.000202178955078125
0.0004100799560546875
7.772445678710938e-05
-0.000820159912109375
0.0004787445068359375
0.0023193359375
-0.00113677978515625
7.486343383789062e-05
0.0006561279296875
-0.00145721435546875
0.000347137451171875
0.0016632080078125
-9.489059448242188e-05
0.009033203125
-0.00011873245239257812
-0.0042724609375
0.000858306884765625
0.00017452239990234375
8.58306884765625e-05
0.0013275146484375
0.000736236572265625
0.0037384033203125
0.0006103515625
0.00238037109375
-0.000606536865234375
0.005462646484375
-0.00096893310546875
-0.0023345947265625
-0.00017547607421875
-6.020069122314453e-06
0.000736236572265625
0.000308990478515625
4.982948303222656e-05
-0.00084686279296875
0.0019683837890625
3.62396240234375e-05
0.00016307830810546875
5.91278076171875e-05
-5.745887756347656e-05
-9.775161743164062e-05
-0.0003108978271484375
0.00012302398681640625
6.866455078125e-05
-8.678436279296875e-05
-0.0003719329833984375
0.000667572021484375
0.000370025634765625
-5.14984130859375e-05
-0.000347137451171875
-0.00118255615234375
2.682209014892578e-05
0.000690460205078125
0.000827789306640625
-3.2901763916015625e-05
-0.000244140625
0.005401611328125
0.0008392333984375
-0.0003681182861328125
0.000335693359375
-6.5267086029052734e-06
0.00119781494140625
-1.71661376953125e-05
0.0005950927734375
-0.0010223388671875
-0.00128173828125
-0.00010251998901367188
0.00052642822265625
-0.00015163421630859375
0.0001373291015625
-0.00011205673217773438
3.170967102050781e-05
-0.00213623046875
0.00010919570922851562
-0.0001430511474609375
0.0002384185791015625
0.000579833984375
0.00023555755615234375
-7.343292236328125e-05
5.316734313964844e-05
-0.00189971923828125
0.00051116943359375
-3.8623809814453125e-05
0.00011396408081054688
-0.00040435791015625
-6.580352783203125e-05
0.0003662109375
-0.00083160400390625
3.993511199951172e-06
-4.76837158203125e-05
-3.874301910400391e-06
-0.00010585784912109375
0.00701904296875
0.00174713134765625
1.8477439880371094e-05
-0.00018596649169921875
8.20159912109375e-05
-0.00250244140625
-0.0002460479736328125
-0.0002079010009765625
7.915496826171875e-05
0.0002498626708984375
-0.000232696533203125
-0.0001621246337890625
4.029273986816406e-05
0.0001430511474609375
0.0001544952392578125
0.0001735687255859375
0.002105712890625
-0.0015106201171875
-0.00055694580078125
-3.600120544433594e-05
-0.00018596649169921875
3.7439167499542236e-07
-0.00011730194091796875
6.198883056640625e-05
-0.0006256103515625
0.0002803802490234375
0.0003643035888671875
0.000957489013671875
-0.0001773834228515625
-0.00017070770263671875
0.000324249267578125
-1.3984375
0.00096893310546875
0.001312255859375
-4.1961669921875e-05
-2.574920654296875e-05
-1.33514404296875e-05
0.00022602081298828125
0.000244140625
-0.0001983642578125
-0.0001735687255859375
-4.9591064453125e-05
-0.00023651123046875
-0.004486083984375
-0.0004825592041015625
0.0001087188720703125
-0.0012054443359375
0.037353515625
0.00014400482177734375
-0.000736236572265625
-0.00106048583984375
-0.000507354736328125
0.006317138671875
0.004302978515625
-3.0279159545898438e-05
-2.2351741790771484e-06
0.0002803802490234375
0.0021820068359375
9.47713851928711e-06
5.841255187988281e-05
-9.834766387939453e-06
0.005157470703125
0.00142669677734375
0.0004253387451171875
-2.9921531677246094e-05
-5.745887756347656e-05
8.344650268554688e-05
-1.0013580322265625e-05
-0.0021820068359375
0.000213623046875
-1.0654330253601074e-06
0.000690460205078125
-0.00347900390625
-0.00012111663818359375
-0.00019073486328125
6.008148193359375e-05
0.00124359130859375
0.0001926422119140625
-0.00141143798828125
-0.000804901123046875
-5.9604644775390625e-05
-0.0024261474609375
0.0003337860107421875
0.000507354736328125
-4.1484832763671875e-05
3.855675458908081e-07
6.818771362304688e-05
-2.16066837310791e-06
0.00049591064453125
0.000293731689453125
-2.7298927307128906e-05
-2.09808349609375e-05
0.0018768310546875
-0.00019073486328125
0.00016880035400390625
-6.532669067382812e-05
7.486343383789062e-05
0.003173828125
-0.00150299072265625
0.0030059814453125
0.0003490447998046875
0.00019931793212890625
-0.00579833984375
-0.002197265625
0.00021266937255859375
0.00012159347534179688
-0.00029754638671875
-3.719329833984375e-05
-0.00046539306640625
3.3855438232421875e-05
-5.401670932769775e-07
-0.000202178955078125
-0.00015926361083984375
0.00141143798828125
-4.076957702636719e-05
0.0007476806640625
0.01055908203125
1.0728836059570312e-05
-1.33514404296875e-05
-6.151199340820312e-05
1.1265277862548828e-05
-0.0003986358642578125
-0.00029754638671875
0.001312255859375
0.000972747802734375
-1.1742115020751953e-05
0.0012054443359375
-1.1920928955078125e-05
-0.00014495849609375
-5.453824996948242e-06
2.0623207092285156e-05
-5.316734313964844e-05
0.000278472900390625
-7.104873657226562e-05
-0.000537872314453125
0.000732421875
0.0003452301025390625
-0.00016689300537109375
0.00628662109375
0.00013828277587890625
-0.00016498565673828125
0.0020904541015625
-0.00107574462890625
-7.009506225585938e-05
0.0002536773681640625
0.00122833251953125
-0.000255584716796875
7.963180541992188e-05
0.00135040283203125
0.0001544952392578125
-0.0001468658447265625
-5.936622619628906e-05
-0.0004425048828125
-2.491474151611328e-05
0.00128936767578125
-0.000461578369140625
-0.0002918243408203125
-0.0003566741943359375
-0.001068115234375
0.0006561279296875
0.0001983642578125
-0.00064849853515625
0.001190185546875
-0.00011396408081054688
0.0014495849609375
-0.000110626220703125
0.001251220703125
0.00037384033203125
-0.00075531005859375
-0.000579833984375
-5.5730342864990234e-06
5.923211574554443e-07
-7.3015689849853516e-06
0.00022792816162109375
-0.01025390625
6.389617919921875e-05
0.0003414154052734375
-9.250640869140625e-05
0.0003108978271484375
-0.0002422332763671875
-7.295608520507812e-05
-7.009506225585938e-05
0.00080108642578125
-5.054473876953125e-05
0.00125885009765625
-4.553794860839844e-05
0.0004062652587890625
-0.00860595703125
1.2099742889404297e-05
0.000759124755859375
0.000720977783203125
-6.67572021484375e-05
-0.0028076171875
-0.000278472900390625
0.0017547607421875
6.008148193359375e-05
-0.00017261505126953125
-4.172325134277344e-05
0.004486083984375
-9.250640869140625e-05
7.724761962890625e-05
6.008148193359375e-05
7.581710815429688e-05
0.000396728515625
1.2874603271484375e-05
-0.000514984130859375
5.817413330078125e-05
0.0001850128173828125
0.001007080078125
2.467632293701172e-05
0.0003490447998046875
-4.410743713378906e-06
8.754432201385498e-07
-0.00017261505126953125
-0.0004024505615234375
0.0004711151123046875
0.00156402587890625
-0.0038604736328125
-0.016357421875
-3.471970558166504e-06
-0.000598907470703125
7.43865966796875e-05
-0.000720977783203125
-0.0003662109375
0.01007080078125
0.000141143798828125
-0.0003814697265625
0.0013427734375
-1.3232231140136719e-05
-7.534027099609375e-05
2.5391578674316406e-05
1.895427703857422e-05
-0.001068115234375
0.00021457672119140625
0.00201416015625
-0.00213623046875
0.00070953369140625
-0.000316619873046875
0.0005340576171875
-0.0003643035888671875
0.0036773681640625
0.0009307861328125
0.00186920166015625
-0.000316619873046875
-0.00032806396484375
-0.000835418701171875
-0.004425048828125
-0.004150390625
-0.00084686279296875
0.00018215179443359375
0.01171875
-0.0016326904296875
0.000392913818359375
-3.910064697265625e-05
0.0003032684326171875
-0.0012664794921875
-0.00020122528076171875
-0.000560760498046875
0.00067138671875
0.0002727508544921875
-9.5367431640625e-06
-8.916854858398438e-05
-0.00093841552734375
-0.00013828277587890625
0.000278472900390625
0.0001239776611328125
0.00019550323486328125
3.814697265625e-05
0.000743865966796875
0.000293731689453125
0.000934600830078125
-0.0019989013671875
-0.00013256072998046875
-0.0004749298095703125
-0.000247955322265625
0.00130462646484375
-0.000606536865234375
-0.0023345947265625
5.817413330078125e-05
-0.000858306884765625
6.866455078125e-05
0.01007080078125
-0.00015163421630859375
-0.00107574462890625
0.00107574462890625
-0.000949859619140625
0.00109100341796875
-0.00038909912109375
-0.00083160400390625
0.000110626220703125
0.01275634765625
0.0003147125244140625
0.00799560546875
-0.0010223388671875
-0.00048065185546875
-0.00074005126953125
0.0004711151123046875
0.0003662109375
1.2993812561035156e-05
-0.000370025634765625
0.00048065185546875
-0.000415802001953125
-0.0001468658447265625
0.00823974609375
-6.389617919921875e-05
-0.00421142578125
0.00131988525390625
0.0002307891845703125
0.0001010894775390625
-0.00124359130859375
0.0001316070556640625
-4.57763671875e-05
0.00090789794921875
-0.000446319580078125
-0.000675201416015625
-0.000728607177734375
5.984306335449219e-05
-0.0003871917724609375
-0.0003108978271484375
2.8371810913085938e-05
0.000888824462890625
0.0004711151123046875
8.58306884765625e-05
0.0002880096435546875
7.295608520507812e-05
0.0004329681396484375
-0.0009918212890625
2.3543834686279297e-06
-2.175569534301758e-06
3.123283386230469e-05
-0.00041961669921875
-0.0004825592041015625
-0.0025482177734375
-0.0003643035888671875
0.00011396408081054688
9.679794311523438e-05
-0.000316619873046875
1.6450881958007812e-05
-0.0004787445068359375
0.0001544952392578125
-0.00335693359375
1.1265277862548828e-05
-4.839897155761719e-05
0.00159454345703125
1.125037670135498e-06
-0.00017547607421875
0.00189208984375
-0.00021266937255859375
-3.725290298461914e-06
-0.00079345703125
0.000652313232421875
2.9206275939941406e-05
-0.0001468658447265625
-8.249282836914062e-05
-0.0025482177734375
2.4318695068359375e-05
-0.000213623046875
-0.0003643035888671875
0.0001354217529296875
5.269050598144531e-05
0.00054168701171875
0.000568389892578125
2.467632293701172e-05
-0.0004329681396484375
0.000431060791015625
-0.000652313232421875
3.719329833984375e-05
0.00020599365234375
0.0005035400390625
0.0011138916015625
0.003265380859375
-0.00052642822265625
0.000125885009765625
-0.000225067138671875
8.916854858398438e-05
0.0002498626708984375
0.0042724609375
0.00083160400390625
0.000232696533203125
-0.0003643035888671875
-4.9114227294921875e-05
0.00013256072998046875
-0.000133514404296875
0.00016880035400390625
7.82012939453125e-05
0.00133514404296875
-0.00042724609375
3.457069396972656e-05
-3.933906555175781e-06
-0.00054168701171875
0.00022125244140625
0.00029754638671875
-4.982948303222656e-05
-0.00013828277587890625
-0.000484466552734375
0.0020904541015625
0.00168609619140625
0.000972747802734375
0.00010967254638671875
-0.0004024505615234375
-0.0025177001953125
-8.881092071533203e-06
-0.000698089599609375
4.1425228118896484e-06
0.001373291015625
0.00113677978515625
0.007659912109375
-0.0003681182861328125
-0.00010633468627929688
0.00013256072998046875
-0.0004787445068359375
0.00142669677734375
6.765127182006836e-06
0.0030517578125
0.0006561279296875
-4.76837158203125e-05
0.0022430419921875
-0.004058837890625
9.417533874511719e-06
0.00030517578125
5.178153514862061e-07
3.0994415283203125e-05
-0.001556396484375
6.008148193359375e-05
0.00118255615234375
5.030632019042969e-05
-0.00029754638671875
-0.00118255615234375
-0.0015106201171875
-1.728534698486328e-05
0.000667572021484375
4.1961669921875e-05
-0.00040435791015625
-5.125999450683594e-05
0.0024566650390625
-0.013671875
1.6450881958007812e-05
-0.080078125
-2.777576446533203e-05
4.4345855712890625e-05
1.2218952178955078e-05
-0.00037384033203125
-0.000782012939453125
9.5367431640625e-05
0.000576019287109375
-0.0006866455078125
0.00018310546875
0.0002994537353515625
-0.0002002716064453125
-1.71661376953125e-05
-0.001220703125
-0.000583648681640625
-4.2438507080078125e-05
-2.0563602447509766e-06
-0.00022792816162109375
5.078315734863281e-05
-0.00010204315185546875
-0.0003108978271484375
-0.000476837158203125
7.772445678710938e-05
-0.0002689361572265625
3.606081008911133e-06
-0.0003948211669921875
-0.0002651214599609375
-0.0001850128173828125
-0.0002117156982421875
-1.7881393432617188e-05
5.7220458984375e-05
-0.00140380859375
2.014636993408203e-05
-0.00180816650390625
-0.000385284423828125
0.00099945068359375
0.000400543212890625
-0.00168609619140625
-0.002105712890625
4.267692565917969e-05
0.00023555755615234375
0.00035858154296875
0.000507354736328125
-0.003814697265625
-0.000244140625
-0.0002956390380859375
8.702278137207031e-06
-0.0005035400390625
-0.0013427734375
-0.00457763671875
-0.00101470947265625
-0.000732421875
-0.0005035400390625
0.0005950927734375
-0.000415802001953125
0.00122833251953125
-0.00012159347534179688
-0.0001678466796875
0.003662109375
-4.3392181396484375e-05
0.0003185272216796875
-0.00213623046875
0.0006256103515625
0.00078582763671875
0.0005950927734375
-2.872943878173828e-05
-9.918212890625e-05
1.0073184967041016e-05
-0.00040435791015625
5.923211574554443e-07
-7.390975952148438e-05
0.000453948974609375
-0.00115966796875
-0.0002346038818359375
0.0010223388671875
-0.000244140625
0.0001811981201171875
-6.4849853515625e-05
-0.001129150390625
0.0005340576171875
0.00052642822265625
-4.9591064453125e-05
-0.00012111663818359375
1.8477439880371094e-05
-0.00019359588623046875
-0.00018310546875
-2.9569491744041443e-08
7.009506225585938e-05
-9.1552734375e-05
0.0001125335693359375
0.00518798828125
9.632110595703125e-05
-0.0007781982421875
0.000263214111328125
-0.0003986358642578125
0.00017547607421875
0.00028228759765625
-0.00140380859375
0.00011587142944335938
-2.7298927307128906e-05
8.440017700195312e-05
0.0003643035888671875
-0.000438690185546875
1.4066696166992188e-05
-0.000701904296875
0.0002689361572265625
-0.001434326171875
0.000843048095703125
-6.580352783203125e-05
4.38690185546875e-05
8.153915405273438e-05
-0.000659942626953125
0.00128936767578125
-0.00823974609375
0.0009613037109375
-0.000640869140625
-0.00341796875
3.910064697265625e-05
0.0001239776611328125
0.00775146484375
-0.000934600830078125
-0.0017547607421875
7.486343383789062e-05
-0.000255584716796875
0.0007781982421875
-0.0003204345703125
9.918212890625e-05
-0.0002899169921875
0.000518798828125
0.00125885009765625
0.000347137451171875
0.0002899169921875
-0.00011539459228515625
-7.772445678710938e-05
1.9669532775878906e-05
7.343292236328125e-05
-0.005828857421875
5.8650970458984375e-05
0.0004405975341796875
0.000537872314453125
-0.00070953369140625
0.000396728515625
-0.00012493133544921875
-7.772445678710938e-05
-0.00058746337890625
-0.000247955322265625
-0.000637054443359375
0.00023746490478515625
0.0024261474609375
-4.0531158447265625e-06
-0.00021648406982421875
-0.0004291534423828125
-2.7865171432495117e-06
-0.000213623046875
-0.004058837890625
0.00145721435546875
-0.00037384033203125
0.0002422332763671875
9.822845458984375e-05
3.528594970703125e-05
6.198883056640625e-05
0.000720977783203125
-0.00013256072998046875
7.772445678710938e-05
0.00151824951171875
-1.0967254638671875e-05
-0.00022411346435546875
-0.0001392364501953125
0.00084686279296875
0.0001621246337890625
0.00060272216796875
-0.00177001953125
-0.000598907470703125
0.00010728836059570312
-0.0003108978271484375
-0.00714111328125
5.91278076171875e-05
0.000705718994140625
0.00069427490234375
-2.0623207092285156e-05
0.000812530517578125
-0.00848388671875
-4.029273986816406e-05
0.0016632080078125
0.000843048095703125
6.943941116333008e-06
1.1324882507324219e-06
-5.507469177246094e-05
-9.584426879882812e-05
-0.0026092529296875
-4.1961669921875e-05
0.0004405975341796875
-7.200241088867188e-05
-0.0004329681396484375
-0.000782012939453125
-0.0004062652587890625
-2.3484230041503906e-05
-0.00029754638671875
-0.00011730194091796875
-0.000720977783203125
-0.001312255859375
-0.000537872314453125
5.507469177246094e-05
-0.00164794921875
-0.005279541015625
2.6345252990722656e-05
-0.000240325927734375
-0.0004215240478515625
-0.00029754638671875
0.00069427490234375
-0.0022125244140625
0.00103759765625
-0.000461578369140625
0.00103759765625
8.009374141693115e-07
5.602836608886719e-05
0.000591278076171875
0.000133514404296875
-3.719329833984375e-05
0.0002460479736328125
0.0013275146484375
-0.000728607177734375
-0.0003337860107421875
-5.626678466796875e-05
-0.00013446807861328125
-0.001068115234375
1.4081597328186035e-06
0.00153350830078125
-0.00069427490234375
0.000347137451171875
-0.00016498565673828125
8.828938007354736e-07
-0.000194549560546875
-0.00013065338134765625
0.000308990478515625
0.003021240234375
-0.0003070831298828125
-0.00022983551025390625
6.103515625e-05
-9.179115295410156e-06
-0.000640869140625
-0.000518798828125
0.0001468658447265625
0.000331878662109375
-0.000537872314453125
-5.888938903808594e-05
-0.001495361328125
8.869171142578125e-05
2.3603439331054688e-05
0.0186767578125
0.000804901123046875
-0.00118255615234375
0.0076904296875
0.0001811981201171875
2.9802322387695312e-05
6.532669067382812e-05
0.0003032684326171875
-1.1026859283447266e-05
-6.246566772460938e-05
-0.0028076171875
0.0004177093505859375
-0.0002307891845703125
-0.0003299713134765625
0.0003204345703125
5.269050598144531e-05
0.0001735687255859375
0.00142669677734375
0.00018024444580078125
-0.0006103515625
-0.00113677978515625
-2.0265579223632812e-05
-0.000972747802734375
0.0133056640625
-0.0008392333984375
-0.0299072265625
9.357929229736328e-06
0.0024871826171875
0.0009765625
0.0002765655517578125
0.0001430511474609375
-2.7060508728027344e-05
0.0002765655517578125
-9.679794311523438e-05
-0.0047607421875
0.000885009765625
-2.6941299438476562e-05
-0.00017070770263671875
-1.6808509826660156e-05
0.000507354736328125
0.0003986358642578125
-0.0003910064697265625
-0.00160980224609375
-0.0003204345703125
0.00015544891357421875
2.2649765014648438e-05
4.553794860839844e-05
0.000133514404296875
-0.000812530517578125
-0.0004215240478515625
8.881092071533203e-06
0.002105712890625
8.463859558105469e-06
1.7404556274414062e-05
-0.0025634765625
0.000148773193359375
-0.00115203857421875
0.0001926422119140625
0.000213623046875
-0.0004749298095703125
-0.0003223419189453125
-0.00025177001953125
3.743171691894531e-05
-0.0008544921875
-0.00057220458984375
-0.004638671875
0.0003032684326171875
-0.0002899169921875
-0.0003490447998046875
-4.5299530029296875e-05
-0.00133514404296875
0.000812530517578125
-0.0035858154296875
0.004425048828125
0.000705718994140625
-3.039836883544922e-05
3.170967102050781e-05
0.00030517578125
-5.745887756347656e-05
0.004669189453125
0.000675201416015625
0.00010919570922851562
0.00028228759765625
0.00014495849609375
-0.0009765625
-0.000576019287109375
-0.00020694732666015625
-0.0001621246337890625
0.00029754638671875
-0.000270843505859375
0.0003604888916015625
0.00081634521484375
0.000148773193359375
-2.1338462829589844e-05
-3.3855438232421875e-05
-0.000499725341796875
0.000553131103515625
-5.0961971282958984e-06
-0.0001621246337890625
0.0009918212890625
-2.0384788513183594e-05
0.002044677734375
0.000583648681640625
0.00018596649169921875
0.00115203857421875
0.0004253387451171875
-1.3709068298339844e-05
-0.0003948211669921875
1.424551010131836e-05
0.0013580322265625
0.000152587890625
-0.000713348388671875
-0.0005035400390625
3.123283386230469e-05
0.0001392364501953125
0.0002880096435546875
-0.000865936279296875
0.0019989013671875
-0.000820159912109375
0.02783203125
-0.001190185546875
-0.00023746490478515625
-0.00084686279296875
-5.745887756347656e-05
-0.000331878662109375
-0.000377655029296875
2.8848648071289062e-05
-3.4332275390625e-05
-0.02099609375
1.8835067749023438e-05
-2.396106719970703e-05
2.4557113647460938e-05
-0.00031280517578125
-5.984306335449219e-05
-0.0003337860107421875
0.000637054443359375
0.0004749298095703125
-0.00095367431640625
0.00020503997802734375
1.633167266845703e-05
0.0004062652587890625
-0.003387451171875
-0.0177001953125
-0.0002803802490234375
0.00079345703125
-0.0003662109375
-0.000698089599609375
0.000431060791015625
-8.392333984375e-05
-0.000568389892578125
0.0002288818359375
-0.008056640625
0.000926971435546875
-0.00118255615234375
-0.0005645751953125
-0.0004138946533203125
-0.0002880096435546875
-0.0001506805419921875
-1.138448715209961e-05
-0.000789642333984375
-0.00012302398681640625
8.821487426757812e-05
2.7179718017578125e-05
8.0108642578125e-05
0.000804901123046875
4.172325134277344e-05
-0.0004100799560546875
-0.00022125244140625
0.00014972686767578125
0.000148773193359375
-3.0279159545898438e-05
0.00787353515625
-0.0002956390380859375
-0.0002288818359375
6.389617919921875e-05
0.000804901123046875
-1.6391277313232422e-07
-1.3232231140136719e-05
0.00018024444580078125
0.0002346038818359375
0.000598907470703125
-0.0002193450927734375
0.0012969970703125
-1.4722347259521484e-05
3.719329833984375e-05
-0.0003528594970703125
-0.0013885498046875
-0.001800537109375
-0.00201416015625
-0.0019989013671875
-2.300739288330078e-05
0.0069580078125
3.838539123535156e-05
-0.00160980224609375
0.00128173828125
0.0004520416259765625
0.0007781982421875
-0.00037384033203125
0.000164031982421875
-0.0002803802490234375
0.0003299713134765625
3.0040740966796875e-05
-0.00089263916015625
9.059906005859375e-06
-0.00048065185546875
-0.00060272216796875
0.000171661376953125
0.0026397705078125
-0.00101470947265625
-0.0003528594970703125
1.7404556274414062e-05
6.151199340820312e-05
-0.000274658203125
0.000614166259765625
0.00020122528076171875
0.0024566650390625
-0.000286102294921875
-6.437301635742188e-05
-0.0004024505615234375
4.649162292480469e-05
-0.00012302398681640625
0.0002803802490234375
0.000240325927734375
0.000392913818359375
1.6450881958007812e-05
-0.000637054443359375
-0.001861572265625
-0.000141143798828125
-0.00018310546875
-7.104873657226562e-05
-3.0159950256347656e-05
-0.00189971923828125
0.00182342529296875
-0.00090789794921875
-3.1739473342895508e-06
-0.0001125335693359375
0.00109100341796875
0.000606536865234375
-0.0024871826171875
-0.000522613525390625
0.00106048583984375
0.0003376007080078125
0.00017452239990234375
-4.887580871582031e-05
-5.334615707397461e-06
0.000335693359375
-0.0002346038818359375
0.00013637542724609375
0.0007476806640625
0.001678466796875
-0.00030517578125
0.00018405914306640625
-0.04150390625
-0.0019989013671875
0.000335693359375
0.322265625
-0.0017242431640625
-0.0002689361572265625
-0.0012054443359375
-0.00238037109375
-0.0013275146484375
0.0006866455078125
3.314018249511719e-05
-0.00061798095703125
3.9577484130859375e-05
0.00140380859375
-0.0009002685546875
2.9802322387695312e-05
-0.0003185272216796875
0.00030517578125
0.00160980224609375
0.000823974609375
0.00098419189453125
0.0012359619140625
-0.0002727508544921875
-0.000293731689453125
-0.0281982421875
-0.0004215240478515625
0.0004329681396484375
-7.534027099609375e-05
0.00081634521484375
-0.0035400390625
0.0001239776611328125
4.124641418457031e-05
-2.2202730178833008e-06
-0.000667572021484375
-0.00013637542724609375
0.0001087188720703125
0.00023555755615234375
-0.000255584716796875
-0.00011444091796875
4.649162292480469e-05
-0.00014781951904296875
0.00017642974853515625
0.0010528564453125
-2.1875
0.00102996826171875
-0.000316619873046875
0.0012359619140625
9.775161743164062e-05
-0.0013427734375
-7.343292236328125e-05
0.0004367828369140625
0.0024261474609375
4.839897155761719e-05
-0.00063323974609375
0.000263214111328125
-0.005767822265625
0.00165557861328125
5.14984130859375e-05
0.00011301040649414062
-0.000244140625
-0.000919342041015625
0.000942230224609375
0.0001678466796875
-0.00022792816162109375
-0.00119781494140625
0.0002994537353515625
-0.01495361328125
0.000553131103515625
0.00052642822265625
-0.0006256103515625
0.0001926422119140625
-0.000812530517578125
-0.006683349609375
0.00115966796875
-9.822845458984375e-05
0.00106048583984375
3.075599670410156e-05
-8.0108642578125e-05
-0.000385284423828125
-0.0002689361572265625
1.424551010131836e-05
-5.245208740234375e-05
-0.000331878662109375
2.0623207092285156e-05
-6.817281246185303e-07
-0.00011396408081054688
0.004241943359375
-2.8252601623535156e-05
-0.000732421875
-0.00023365020751953125
0.0118408203125
0.000682830810546875
-0.00012969970703125
0.00041961669921875
-0.00011920928955078125
-0.00102996826171875
0.0005950927734375
-0.0010223388671875
0.00103759765625
-0.0027008056640625
4.076957702636719e-05
0.00064849853515625
0.00274658203125
-3.6954879760742188e-06
0.00055694580078125
0.0004177093505859375
-0.0018768310546875
0.000690460205078125
-2.1338462829589844e-05
-0.000522613525390625
4.291534423828125e-06
-0.0003833770751953125
-7.343292236328125e-05
-0.00021648406982421875
0.00014209747314453125
-0.0003814697265625
1.4901161193847656e-05
-4.231929779052734e-06
8.440017700195312e-05
-0.00628662109375
0.00020885467529296875
0.0003871917724609375
0.00139617919921875
0.000446319580078125
-0.000492095947265625
-0.00213623046875
0.00015163421630859375
0.0010833740234375
-0.02197265625
0.0003757476806640625
0.0028076171875
-3.314018249511719e-05
-0.0003452301025390625
0.0028076171875
-0.0003528594970703125
0.0004253387451171875
0.00115203857421875
-0.00037384033203125
-0.0011444091796875
1.3589859008789062e-05
0.00787353515625
-2.384185791015625e-05
-0.00011968612670898438
-0.006561279296875
-0.005126953125
-2.726912498474121e-06
-0.000766754150390625
0.000713348388671875
0.0037384033203125
-1.0371208190917969e-05
-0.005859375
-0.004913330078125
0.0004482269287109375
-0.00153350830078125
9.870529174804688e-05
0.00156402587890625
-9.000301361083984e-06
0.0004863739013671875
0.0003509521484375
0.0001373291015625
-0.004150390625
0.000598907470703125
0.00013637542724609375
0.00054931640625
-0.00069427490234375
-2.1576881408691406e-05
3.4809112548828125e-05
-0.00024318695068359375
-0.00013828277587890625
-0.019775390625
-0.0004863739013671875
0.00020885467529296875
-5.1021575927734375e-05
-0.000698089599609375
1.5854835510253906e-05
0.0005950927734375
-4.6193599700927734e-06
-0.0012359619140625
0.00128173828125
0.001312255859375
1.2814998626708984e-05
-0.00061798095703125
-0.000385284423828125
0.000732421875
-0.00139617919921875
-0.000362396240234375
-0.00023365020751953125
-0.0003032684326171875
-0.00081634521484375
-7.677078247070312e-05
2.0256265997886658e-08
0.0033111572265625
-0.0004291534423828125
-0.000392913818359375
0.000782012939453125
-5.9604644775390625e-05
1.2665987014770508e-06
-3.552436828613281e-05
9.679794311523438e-05
0.000438690185546875
0.00040435791015625
0.0002193450927734375
-5.14984130859375e-05
-4.553794860839844e-05
0.001708984375
6.67572021484375e-05
5.054473876953125e-05
0.0003070831298828125
0.000659942626953125
0.00014019012451171875
0.006500244140625
1.2889504432678223e-06
0.000701904296875
-0.000217437744140625
-0.0002536773681640625
-0.000560760498046875
0.000553131103515625
0.00028228759765625
0.000659942626953125
-0.0002880096435546875
-0.001373291015625
-5.745887756347656e-05
-0.0003204345703125
-0.00025177001953125
0.0001773834228515625
-0.000335693359375
-0.0004024505615234375
-2.8252601623535156e-05
-0.000141143798828125
3.981590270996094e-05
0.0001544952392578125
0.005767822265625
-0.00010967254638671875
-4.887580871582031e-05
0.0006561279296875
0.000759124755859375
0.0010528564453125
0.0079345703125
-9.632110595703125e-05
-0.00128173828125
5.029141902923584e-07
2.9921531677246094e-05
0.0009918212890625
-0.00081634521484375
-0.00019168853759765625
0.00031280517578125
-2.942979335784912e-07
3.2186508178710938e-06
-0.000743865966796875
0.00010585784912109375
0.000270843505859375
-2.0623207092285156e-05
-0.002532958984375
-0.000713348388671875
0.00030517578125
-0.00034332275390625
0.00188446044921875
-0.00034332275390625
0.0002918243408203125
0.00616455078125
-8.23289155960083e-07
-0.00012302398681640625
6.341934204101562e-05
-0.00244140625
-4.6253204345703125e-05
-7.808208465576172e-06
0.000385284423828125
-6.0558319091796875e-05
3.3855438232421875e-05
0.002593994140625
0.00171661376953125
-1.7404556274414062e-05
7.581710815429688e-05
-8.058547973632812e-05
-0.00026702880859375
-0.00012302398681640625
0.00037384033203125
-0.0005035400390625
-2.574920654296875e-05
-0.000148773193359375
0.0003070831298828125
-0.00159454345703125
-0.000133514404296875
-0.0002880096435546875
-0.0024261474609375
-0.00012874603271484375
-0.00013065338134765625
-2.562999725341797e-06
0.00131988525390625
-7.3015689849853516e-06
4.410743713378906e-05
-5.7220458984375e-05
0.0019683837890625
7.200241088867188e-05
0.000286102294921875
-1.4126300811767578e-05
-2.849102020263672e-05
-0.0003948211669921875
0.00031280517578125
0.000614166259765625
-0.000408172607421875
7.200241088867188e-05
-4.8160552978515625e-05
-0.00021648406982421875
2.6702880859375e-05
0.000598907470703125
-0.000530242919921875
-0.000934600830078125
-0.00058746337890625
1.3947486877441406e-05
0.0003299713134765625
-0.0001430511474609375
-0.0012664794921875
7.343292236328125e-05
-0.00185394287109375
-7.295608520507812e-05
0.002197265625
-4.696846008300781e-05
0.004852294921875
1.8998980522155762e-06
-0.00081634521484375
-0.00018405914306640625
-9.834766387939453e-06
-0.000171661376953125
0.0004253387451171875
3.528594970703125e-05
-0.003082275390625
-7.867813110351562e-06
0.00018310546875
0.0002727508544921875
7.62939453125e-06
-0.000286102294921875
0.0005340576171875
0.0002727508544921875
-0.00069427490234375
-0.0002346038818359375
-0.000865936279296875
7.200241088867188e-05
0.00116729736328125
-0.00148773193359375
0.0001049041748046875
0.00018787384033203125
-0.0006103515625
-7.82012939453125e-05
-0.000972747802734375
-0.0010833740234375
-0.00022792816162109375
0.0001049041748046875
-0.00016307830810546875
0.000484466552734375
-0.0042724609375
7.534027099609375e-05
-0.0002498626708984375
-3.886222839355469e-05
-0.0028076171875
-0.000598907470703125
2.592802047729492e-06
-0.0003414154052734375
6.884336471557617e-06
0.000469207763671875
0.000148773193359375
0.000274658203125
-0.000881195068359375
7.772445678710938e-05
-9.584426879882812e-05
0.00112152099609375
-0.00057220458984375
0.00015354156494140625
0.0028228759765625
-0.0019378662109375
0.0032501220703125
0.000576019287109375
-0.00014591217041015625
2.205371856689453e-05
-0.00164031982421875
-0.0002841949462890625
0.0014801025390625
0.000339508056640625
0.00019168853759765625
-0.00165557861328125
5.8650970458984375e-05
0.000568389892578125
0.0002613067626953125
-0.00016117095947265625
-0.0005340576171875
0.000598907470703125
7.724761962890625e-05
0.00021076202392578125
-0.000812530517578125
-0.004852294921875
0.0004291534423828125
-0.0026702880859375
0.00115203857421875
-0.005645751953125
-6.914138793945312e-05
0.000865936279296875
0.000850677490234375
0.00067901611328125
-7.343292236328125e-05
-0.000728607177734375
-0.0004444122314453125
-0.00116729736328125
-6.437301635742188e-05
0.00010776519775390625
0.001312255859375
0.000438690185546875
-0.00017070770263671875
7.295608520507812e-05
-8.392333984375e-05
0.00080108642578125
-0.0001277923583984375
0.000438690185546875
-4.553794860839844e-05
-0.000171661376953125
-0.000766754150390625
-6.532669067382812e-05
-0.000286102294921875
0.00061798095703125
0.00012683868408203125
-0.00022029876708984375
0.0025634765625
0.000308990478515625
-1.3530254364013672e-05
0.000720977783203125
0.000385284423828125
0.00046539306640625
-0.0002727508544921875
-0.0001430511474609375
0.0003528594970703125
-0.00168609619140625
-9.1552734375e-05
0.0003566741943359375
-0.0103759765625
-0.0002536773681640625
4.482269287109375e-05
-0.0002956390380859375
-8.916854858398438e-05
3.695487976074219e-05
0.00058746337890625
0.0016632080078125
0.00113677978515625
0.000812530517578125
-0.0003070831298828125
0.000583648681640625
0.0003070831298828125
0.0004749298095703125
0.00010728836059570312
-0.0001983642578125
6.67572021484375e-06
0.0001392364501953125
-0.00025177001953125
0.0001850128173828125
-3.1948089599609375e-05
5.316734313964844e-05
-6.723403930664062e-05
0.0002956390380859375
0.000518798828125
0.00103759765625
0.00048828125
0.00022602081298828125
5.435943603515625e-05
0.00213623046875
5.8650970458984375e-05
-3.0994415283203125e-05
3.695487976074219e-05
1.8715858459472656e-05
-0.00040435791015625
0.0007476806640625
-7.009506225585938e-05
4.4345855712890625e-05
-1.704692840576172e-05
0.0023345947265625
-5.0067901611328125e-05
0.0004425048828125
0.00131988525390625
-1.1622905731201172e-05
-0.00182342529296875
-0.0006103515625
0.0002193450927734375
2.086162567138672e-05
0.00057220458984375
1.800060272216797e-05
-0.0020751953125
-6.723403930664062e-05
-0.00010061264038085938
-0.004608154296875
-0.002685546875
-0.00095367431640625
0.00147247314453125
0.00018978118896484375
8.296966552734375e-05
-0.00016117095947265625
-0.001800537109375
0.00011777877807617188
0.0020294189453125
-6.723403930664062e-05
-0.00015544891357421875
0.0023651123046875
0.000316619873046875
0.01287841796875
0.0004367828369140625
9.679794311523438e-05
-0.00109100341796875
0.0020599365234375
-2.3365020751953125e-05
-0.00012302398681640625
-0.000949859619140625
-0.00213623046875
0.000370025634765625
-0.00150299072265625
-0.0004062652587890625
9.34600830078125e-05
-0.00189971923828125
-9.870529174804688e-05
0.00015926361083984375
-0.00051116943359375
-0.003936767578125
-0.000736236572265625
-0.00165557861328125
0.0016326904296875
-0.0001373291015625
-0.0002727508544921875
-1.6808509826660156e-05
0.00110626220703125
0.004150390625
0.00012683868408203125
-0.000904083251953125
-0.0004119873046875
-0.0019683837890625
0.00011110305786132812
0.00070953369140625
7.724761962890625e-05
-2.0503997802734375e-05
-0.00012874603271484375
-5.2928924560546875e-05
0.00726318359375
4.470348358154297e-08
-0.00159454345703125
-2.9921531677246094e-05
-4.792213439941406e-05
-0.0012359619140625
0.00021839141845703125
0.000213623046875
-0.0019683837890625
0.00070953369140625
0.00064849853515625
0.0003204345703125
0.0003871917724609375
0.000354766845703125
6.103515625e-05
-0.0013580322265625
0.000640869140625
0.000850677490234375
-0.00011682510375976562
0.0009613037109375
0.000324249267578125
-2.0265579223632812e-05
6.139278411865234e-06
0.0020599365234375
-0.00179290771484375
-0.000728607177734375
-0.0002918243408203125
0.000118255615234375
1.621246337890625e-05
-0.00101470947265625
-3.9577484130859375e-05
-2.1576881408691406e-05
0.0003185272216796875
-5.030632019042969e-05
-0.000469207763671875
-2.193450927734375e-05
4.5299530029296875e-05
0.000133514404296875
0.00014972686767578125
-0.00037384033203125
0.0018157958984375
-0.000705718994140625
-0.00115966796875
-0.0008392333984375
0.000530242919921875
-0.000530242919921875
-0.0001239776611328125
-0.000568389892578125
0.00017070770263671875
0.000576019287109375
0.001434326171875
-7.343292236328125e-05
-0.00011014938354492188
0.00067138671875
-2.777576446533203e-05
-0.0003814697265625
-0.000179290771484375
0.00011920928955078125
0.000888824462890625
-0.000576019287109375
8.869171142578125e-05
0.0002346038818359375
0.00021648406982421875
-0.000240325927734375
-0.000286102294921875
0.00182342529296875
-0.00011396408081054688
7.43865966796875e-05
0.00067138671875
1.990795135498047e-05
-0.0012664794921875
-4.6253204345703125e-05
0.00022029876708984375
0.00102996826171875
-3.814697265625e-05
0.00012969970703125
0.0003566741943359375
0.0001811981201171875
-4.029273986816406e-05
-6.532669067382812e-05
-8.96453857421875e-05
-0.00138092041015625
-3.6209821701049805e-06
-0.0004405975341796875
3.719329833984375e-05
0.00021266937255859375
0.00012969970703125
7.867813110351562e-05
-1.4960765838623047e-05
-0.0002689361572265625
0.004058837890625
-8.726119995117188e-05
0.0002727508544921875
0.00014781951904296875
-0.00958251953125
0.00049591064453125
-3.075599670410156e-05
0.000530242919921875
-0.000583648681640625
0.000431060791015625
0.000743865966796875
1.0728836059570312e-05
-0.0010833740234375
1.1861324310302734e-05
-0.00115966796875
-0.00014781951904296875
-0.0003337860107421875
0.0001544952392578125
-0.0074462890625
-0.00018405914306640625
-2.3245811462402344e-05
-0.00072479248046875
-0.00011205673217773438
0.00072479248046875
-0.0001850128173828125
-0.00113677978515625
4.887580871582031e-05
-0.000675201416015625
-0.0003337860107421875
0.004364013671875
8.630752563476562e-05
0.00012493133544921875
-9.059906005859375e-05
0.0037384033203125
0.00017547607421875
0.1162109375
-0.0014190673828125
-0.00099945068359375
0.0125732421875
0.00167083740234375
5.245208740234375e-05
0.00025177001953125
-0.0002231597900390625
0.000644683837890625
-9.965896606445312e-05
5.125999450683594e-06
-0.000499725341796875
0.0002956390380859375
-0.000942230224609375
7.772445678710938e-05
-0.001373291015625
-8.20159912109375e-05
-0.0019073486328125
0.00013065338134765625
5.8710575103759766e-06
0.000278472900390625
-0.000701904296875
-0.0004024505615234375
0.00018978118896484375
-0.00018024444580078125
0.00011157989501953125
0.00022983551025390625
-0.0003795623779296875
-0.00110626220703125
0.000759124755859375
0.0020904541015625
-0.000415802001953125
3.0279159545898438e-05
-2.7179718017578125e-05
-0.000652313232421875
-5.936622619628906e-05
-0.00067901611328125
0.00012874603271484375
-6.580352783203125e-05
-0.00010538101196289062
-0.000347137451171875
-0.0004634857177734375
0.000293731689453125
-0.00010919570922851562
0.00031280517578125
0.00022029876708984375
-0.00078582763671875
-0.000293731689453125
-3.337860107421875e-05
0.00141143798828125
0.00341796875
0.00022029876708984375
0.00014591217041015625
-9.775161743164062e-05
-8.392333984375e-05
-8.821487426757812e-05
-6.8247318267822266e-06
0.00012493133544921875
-3.129243850708008e-06
-0.001739501953125
0.0015106201171875
-0.023681640625
-0.00041961669921875
4.38690185546875e-05
0.00010538101196289062
0.00043487548828125
-0.0135498046875
0.00135040283203125
0.0002765655517578125
-6.22868537902832e-06
-0.000415802001953125
-0.0001811981201171875
-6.771087646484375e-05
-0.00194549560546875
-0.0006866455078125
-0.00628662109375
0.0034942626953125
-0.000728607177734375
-0.000720977783203125
-0.00014781951904296875
-4.673004150390625e-05
3.2335519790649414e-06
0.0017547607421875
-0.00020599365234375
4.696846008300781e-05
-0.0010528564453125
-0.0003337860107421875
0.00010538101196289062
0.0003108978271484375
-0.0004825592041015625
-2.491474151611328e-05
4.553794860839844e-05
0.0001678466796875
0.0003719329833984375
8.249282836914062e-05
0.000583648681640625
3.409385681152344e-05
-0.00127410888671875
-0.0016937255859375
0.00012493133544921875
0.000698089599609375
1.728534698486328e-05
-0.000530242919921875
0.0011138916015625
0.0006103515625
-3.159046173095703e-06
5.221366882324219e-05
-1.0251998901367188e-05
-0.000583648681640625
-0.00118255615234375
-0.0001926422119140625
6.0558319091796875e-05
2.0265579223632812e-05
3.337860107421875e-05
0.000438690185546875
0.000186920166015625
-0.0004673004150390625
1.2695789337158203e-05
0.00010251998901367188
0.00013828277587890625
-0.00165557861328125
7.3909759521484375e-06
-0.00069427490234375
-0.00119781494140625
1.0371208190917969e-05
-0.00164794921875
7.05718994140625e-05
3.886222839355469e-05
4.291534423828125e-06
9.775161743164062e-05
-1.4662742614746094e-05
-3.62396240234375e-05
0.00015544891357421875
-0.000446319580078125
7.009506225585938e-05
3.409385681152344e-05
0.00011920928955078125
0.000255584716796875
3.790855407714844e-05
-0.0004711151123046875
-0.0009307861328125
-0.00023365020751953125
0.00012683868408203125
-0.0003414154052734375
-0.00116729736328125
0.002166748046875
0.0010833740234375
0.00017833709716796875
-0.0002117156982421875
-0.0007781982421875
-9.98377799987793e-07
0.0002574920654296875
-0.00010538101196289062
-0.00010633468627929688
-0.00099945068359375
1.5079975128173828e-05
-0.00201416015625
-0.0003871917724609375
-0.00099945068359375
-0.00885009765625
-0.000644683837890625
-0.0004444122314453125
1.7404556274414062e-05
-1.9073486328125e-06
-0.00151824951171875
-2.6702880859375e-05
-0.0003108978271484375
6.67572021484375e-05
-0.0015869140625
0.0002918243408203125
7.390975952148438e-05
-3.647804260253906e-05
2.8848648071289062e-05
-0.00048065185546875
-3.695487976074219e-05
0.000591278076171875
0.00016021728515625
-0.0004673004150390625
0.00015735626220703125
0.00014495849609375
9.357929229736328e-06
0.0003337860107421875
0.00112152099609375
-0.00157928466796875
-0.00250244140625
0.0022735595703125
0.00018215179443359375
-0.0002956390380859375
-0.00125885009765625
2.6464462280273438e-05
-0.00096893310546875
-0.000720977783203125
-0.00022029876708984375
0.00191497802734375
-2.6226043701171875e-05
-2.384185791015625e-05
-2.5272369384765625e-05
-0.000614166259765625
1.4781951904296875e-05
-0.000247955322265625
-0.00010585784912109375
0.000728607177734375
0.000675201416015625
0.0030059814453125
-0.004058837890625
0.0020294189453125
-0.000583648681640625
0.002593994140625
-0.0006866455078125
-2.0623207092285156e-05
0.0002651214599609375
0.0001220703125
0.00151824951171875
4.5299530029296875e-05
0.00017642974853515625
0.00020694732666015625
4.100799560546875e-05
0.00089263916015625
-0.00142669677734375
-0.000919342041015625
0.0008392333984375
0.00010824203491210938
-0.00164031982421875
-0.00022792816162109375
0.0006256103515625
0.00103759765625
-5.7697296142578125e-05
-0.0002994537353515625
-0.0001544952392578125
-4.380941390991211e-06
-0.000324249267578125
7.05718994140625e-05
-4.9114227294921875e-05
1.5616416931152344e-05
0.0004749298095703125
0.00162506103515625
0.00019931793212890625
-0.0048828125
0.0015106201171875
-0.00122833251953125
0.00038909912109375
-6.496906280517578e-06
0.0005035400390625
-4.315376281738281e-05
0.0022125244140625
-0.000762939453125
0.0003643035888671875
0.00022411346435546875
9.822845458984375e-05
0.00032806396484375
8.96453857421875e-05
2.9802322387695312e-05
-0.0003643035888671875
4.029273986816406e-05
0.000499725341796875
1.1563301086425781e-05
-0.0003662109375
0.001434326171875
-0.00012874603271484375
-9.34600830078125e-05
0.0001983642578125
6.467103958129883e-06
-5.221366882324219e-05
-0.00038909912109375
0.002899169921875
0.0024871826171875
0.00119781494140625
0.000812530517578125
0.0003337860107421875
-7.009506225585938e-05
7.510185241699219e-06
5.155801773071289e-06
-0.00018405914306640625
0.000545501708984375
-0.00152587890625
-0.000514984130859375
0.00015926361083984375
0.00041961669921875
0.00043487548828125
-1.6450881958007812e-05
-5.125999450683594e-05
-0.0004119873046875
-5.459785461425781e-05
-0.000701904296875
0.0002536773681640625
0.005767822265625
0.00098419189453125
0.0004596710205078125
1.8358230590820312e-05
0.0012054443359375
0.002197265625
-0.00567626953125
5.936622619628906e-05
0.000804901123046875
2.7060508728027344e-05
0.0002765655517578125
0.00011396408081054688
0.000171661376953125
-0.00019073486328125
-5.53131103515625e-05
-0.0002956390380859375
-0.00023174285888671875
0.0004062652587890625
-0.00130462646484375
-0.001617431640625
-0.0019989013671875
-0.00014781951904296875
-0.00092315673828125
-3.218650817871094e-05
0.0002460479736328125
-0.0005340576171875
0.01055908203125
-0.00156402587890625
-1.0848045349121094e-05
0.00063323974609375
0.0001373291015625
0.000339508056640625
-9.632110595703125e-05
0.0013275146484375
0.00012493133544921875
-0.000354766845703125
-0.0002918243408203125
-0.0007781982421875
0.0003414154052734375
0.00037384033203125
0.00157928466796875
-6.771087646484375e-05
-0.00019073486328125
-0.000125885009765625
-0.000682830810546875
6.103515625e-05
0.000339508056640625
-0.000522613525390625
7.581710815429688e-05
-0.353515625
-0.00022220611572265625
9.822845458984375e-05
0.00074005126953125
-0.002685546875
0.0001392364501953125
2.4437904357910156e-05
0.00150299072265625
0.00010776519775390625
0.0003032684326171875
-0.0002498626708984375
-0.000835418701171875
-0.00048828125
0.0003604888916015625
0.00060272216796875
0.000232696533203125
0.000286102294921875
6.818771362304688e-05
-0.0003910064697265625
-0.0002613067626953125
4.267692565917969e-05
-0.00128936767578125
-0.000843048095703125
-0.01397705078125
-7.772445678710938e-05
-4.32133674621582e-06
0.0001964569091796875
7.390975952148438e-05
-0.000698089599609375
-0.0026702880859375
0.001861572265625
-0.0001392364501953125
0.00013828277587890625
-0.0015411376953125
-0.000705718994140625
2.682209014892578e-06
-0.0001316070556640625
-0.0002765655517578125
0.00055694580078125
-0.00017642974853515625
0.0032501220703125
7.724761962890625e-05
0.00011777877807617188
-0.000820159912109375
-0.000766754150390625
2.6345252990722656e-05
-5.698204040527344e-05
0.000286102294921875
-0.0322265625
2.467632293701172e-05
-0.00046539306640625
-0.0009918212890625
-0.000720977783203125
0.0006103515625
-0.000820159912109375
-0.0025482177734375
-2.9206275939941406e-05
0.00010442733764648438
-0.00078582763671875
0.00023555755615234375
-0.00109100341796875
0.00049591064453125
0.00011873245239257812
1.3649463653564453e-05
-6.580352783203125e-05
-0.00025177001953125
-0.0185546875
1.3113021850585938e-05
-0.0008544921875
0.00020885467529296875
-5.5789947509765625e-05
0.00052642822265625
-0.000179290771484375
-0.000751495361328125
-0.0002994537353515625
0.0001220703125
0.00101470947265625
-1.7523765563964844e-05
-0.00011682510375976562
8.249282836914062e-05
0.00013065338134765625
0.00148773193359375
0.000606536865234375
8.058547973632812e-05
-0.00141143798828125
-0.0023193359375
0.000652313232421875
-8.678436279296875e-05
7.82012939453125e-05
0.0002803802490234375
2.7179718017578125e-05
-0.0001506805419921875
0.00121307373046875
0.000888824462890625
-0.000640869140625
0.001312255859375
-0.00115203857421875
-4.172325134277344e-06
1.6450881958007812e-05
0.000629425048828125
-0.0029754638671875
0.0005645751953125
1.0192394256591797e-05
0.00093841552734375
7.05718994140625e-05
-9.655952453613281e-06
0.00244140625
-0.0001316070556640625
0.000652313232421875
0.0004444122314453125
1.6689300537109375e-05
0.00013256072998046875
-0.0001392364501953125
0.000583648681640625
-0.00075531005859375
-0.000583648681640625
-0.0004825592041015625
9.489059448242188e-05
3.600120544433594e-05
0.00017833709716796875
5.8650970458984375e-05
-0.00010538101196289062
-9.679794311523438e-05
-6.818771362304688e-05
0.0002536773681640625
9.822845458984375e-05
-0.00011491775512695312
0.00022220611572265625
0.000362396240234375
0.000339508056640625
0.0016632080078125
-0.005401611328125
0.00021076202392578125
2.1696090698242188e-05
0.00038909912109375
0.0005645751953125
0.000286102294921875
-0.00087738037109375
-0.002716064453125
5.2928924560546875e-05
9.34600830078125e-05
0.00084686279296875
0.0002346038818359375
0.000949859619140625
0.0001354217529296875
5.900859832763672e-06
-7.772445678710938e-05
-0.00017642974853515625
1.430511474609375e-05
0.0004425048828125
-0.00030517578125
0.00012683868408203125
-3.814697265625e-05
-0.0003795623779296875
7.539987564086914e-06
0.0004863739013671875
7.915496826171875e-05
0.0015106201171875
0.00023365020751953125
0.0018157958984375
-0.001434326171875
-0.000640869140625
0.0004444122314453125
-2.995133399963379e-06
-8.344650268554688e-05
0.000232696533203125
0.00136566162109375
0.0002689361572265625
0.001556396484375
1.7523765563964844e-05
-0.0009307861328125
-0.000720977783203125
-0.00023174285888671875
0.0001201629638671875
0.00013637542724609375
0.000885009765625
0.000698089599609375
-0.00078582763671875
-0.001190185546875
-0.000392913818359375
6.008148193359375e-05
-0.0003795623779296875
-0.000598907470703125
-0.000942230224609375
-0.000301361083984375
0.00084686279296875
0.00213623046875
-0.000110626220703125
0.0001544952392578125
-0.00396728515625
1.3113021850585938e-05
-0.09814453125
7.677078247070312e-05
8.916854858398438e-05
8.344650268554688e-05
0.0048828125
-6.628036499023438e-05
-0.000782012939453125
9.822845458984375e-05
0.002197265625
9.298324584960938e-05
-0.0002193450927734375
4.9114227294921875e-05
0.000606536865234375
-0.0020751953125
0.00031280517578125
-0.000774383544921875
-2.956390380859375e-05
-0.0009918212890625
0.00012969970703125
0.00087738037109375
0.00022220611572265625
0.000423431396484375
2.1696090698242188e-05
0.00457763671875
-0.00017642974853515625
-0.0001678466796875
-0.00168609619140625
-1.9550323486328125e-05
-0.00016689300537109375
0.000728607177734375
0.000736236572265625
-3.933906555175781e-05
-0.000141143798828125
-4.124641418457031e-05
0.00103759765625
-0.0008087158203125
-0.0001964569091796875
0.000644683837890625
-7.724761962890625e-05
0.00058746337890625
0.0003757476806640625
-0.0002880096435546875
0.000308990478515625
4.410743713378906e-05
-0.00046539306640625
-7.808208465576172e-06
-0.00016117095947265625
1.1861324310302734e-05
0.000659942626953125
-0.00193023681640625
0.0001163482666015625
1.3232231140136719e-05
6.29425048828125e-05
-0.0003871917724609375
-2.1219253540039062e-05
-0.0012359619140625
7.104873657226562e-05
0.0001239776611328125
-0.0004825592041015625
-2.372264862060547e-05
0.000316619873046875
0.00058746337890625
-0.00010156631469726562
0.0003070831298828125
-4.57763671875e-05
-0.00014972686767578125
0.000347137451171875
-0.0076904296875
-0.000194549560546875
-0.000507354736328125
0.00069427490234375
-5.662441253662109e-06
-4.482269287109375e-05
-1.8358230590820312e-05
-0.000713348388671875
-0.019287109375
-0.0003490447998046875
0.000698089599609375
0.01068115234375
0.0002651214599609375
7.2479248046875e-05
-0.000164031982421875
0.00148773193359375
-0.000598907470703125
-0.001983642578125
-0.0966796875
8.344650268554688e-05
5.245208740234375e-05
-0.0029754638671875
-0.00021266937255859375
0.000896453857421875
2.1338462829589844e-05
-2.3126602172851562e-05
-5.626678466796875e-05
-0.006561279296875
-0.000370025634765625
-5.698204040527344e-05
-1.5497207641601562e-06
0.00020313262939453125
0.000751495361328125
-0.000865936279296875
0.0002841949462890625
-0.000179290771484375
-0.0002117156982421875
1.7642974853515625e-05
-0.00396728515625
-0.00010442733764648438
-4.267692565917969e-05
0.00013446807861328125
-0.00052642822265625
-0.00110626220703125
-0.000560760498046875
-0.00020599365234375
-0.00012683868408203125
0.0003204345703125
0.00014400482177734375
-0.00010442733764648438
0.000911712646484375
0.0006561279296875
0.00074005126953125
-0.0004863739013671875
-0.00077056884765625
-0.0034942626953125
0.00121307373046875
0.000125885009765625
-0.00011730194091796875
3.8623809814453125e-05
-5.5789947509765625e-05
-2.944469451904297e-05
-1.5497207641601562e-05
4.00543212890625e-05
0.0004482269287109375
0.0007476806640625
0.0001201629638671875
-7.724761962890625e-05
-0.000255584716796875
0.00103759765625
-8.20159912109375e-05
0.000881195068359375
0.000827789306640625
-6.031990051269531e-05
7.915496826171875e-05
2.205371856689453e-05
0.000415802001953125
0.00030517578125
-0.000141143798828125
-0.0002307891845703125
-3.5762786865234375e-05
-0.002227783203125
8.0108642578125e-05
-0.0019073486328125
0.002197265625
-0.0001239776611328125
-0.00057220458984375
-0.000560760498046875
-0.0003299713134765625
-1.7404556274414062e-05
4.5299530029296875e-05
-0.000293731689453125
5.340576171875e-05
5.8650970458984375e-05
-0.000316619873046875
5.245208740234375e-05
0.000766754150390625
7.62939453125e-05
-0.00128936767578125
0.0002689361572265625
-1.8477439880371094e-05
-2.5987625122070312e-05
0.000720977783203125
-0.0004425048828125
-7.581710815429688e-05
0.0003871917724609375
0.00028228759765625
0.00020885467529296875
-0.00029754638671875
-0.00011444091796875
-0.0002651214599609375
0.0002346038818359375
0.000682830810546875
0.000286102294921875
-0.0010833740234375
-0.0003414154052734375
0.0001220703125
0.000415802001953125
-1.5854835510253906e-05
0.000156402587890625
0.0002346038818359375
2.8371810913085938e-05
0.00019741058349609375
-0.00173187255859375
0.00012111663818359375
-0.0004024505615234375
2.2411346435546875e-05
-0.000858306884765625
-0.0014495849609375
-0.000514984130859375
0.0027923583984375
-0.00014972686767578125
4.124641418457031e-05
0.00055694580078125
-1.1920928955078125e-05
-0.0032196044921875
0.0010986328125
-3.218650817871094e-05
0.0002613067626953125
5.0067901611328125e-05
-6.151199340820312e-05
-1.7955899238586426e-06
0.0012054443359375
0.000156402587890625
-0.000423431396484375
0.0019378662109375
-0.0001239776611328125
0.004669189453125
-0.0012054443359375
0.000507354736328125
-0.0001659393310546875
0.0002422332763671875
2.6673078536987305e-06
-0.000492095947265625
0.000720977783203125
0.006378173828125
5.030632019042969e-05
0.00011110305786132812
0.0004215240478515625
-0.0004253387451171875
-0.000789642333984375
0.004119873046875
-0.0007171630859375
-1.3053417205810547e-05
0.00250244140625
0.00010442733764648438
-0.000514984130859375
-0.0003566741943359375
0.000484466552734375
-0.00016498565673828125
0.000583648681640625
-0.00081634521484375
8.96453857421875e-05
-0.0007781982421875
-0.0034942626953125
0.00058746337890625
-0.000232696533203125
-4.744529724121094e-05
-0.0003452301025390625
1.2218952178955078e-05
0.00019550323486328125
-0.0004405975341796875
-0.00019550323486328125
0.000713348388671875
2.0563602447509766e-06
-0.000720977783203125
-3.4809112548828125e-05
-0.000797271728515625
5.2928924560546875e-05
0.00048828125
-0.000324249267578125
-0.00018024444580078125
0.00018310546875
0.0010528564453125
0.0003204345703125
-0.0007476806640625
-0.003448486328125
2.726912498474121e-06
0.0001220703125
-1.33514404296875e-05
-0.00244140625
-1.080334186553955e-06
1.5735626220703125e-05
-0.00070953369140625
-2.9087066650390625e-05
0.0004177093505859375
-7.009506225585938e-05
-2.574920654296875e-05
3.203749656677246e-06
-0.00074005126953125
0.00104522705078125
0.00021457672119140625
-2.9087066650390625e-05
-7.534027099609375e-05
0.00099945068359375
0.00011873245239257812
-9.298324584960938e-05
-0.0002956390380859375
-0.00064849853515625
0.0003032684326171875
0.000316619873046875
-0.000560760498046875
0.00014972686767578125
-0.0009765625
-0.00057220458984375
0.0194091796875
8.20159912109375e-05
0.00016498565673828125
-0.000518798828125
2.014636993408203e-05
-0.00087738037109375
-0.00194549560546875
-0.00019168853759765625
-4.482269287109375e-05
5.054473876953125e-05
0.00013256072998046875
-0.00118255615234375
-0.00019168853759765625
-1.1473894119262695e-06
9.298324584960938e-05
-0.0001068115234375
0.0015716552734375
0.000736236572265625
-0.00038909912109375
-0.00032806396484375
-2.86102294921875e-05
0.000492095947265625
2.6941299438476562e-05
-0.000667572021484375
-0.02490234375
-0.000949859619140625
0.00145721435546875
-0.0003509521484375
0.0003032684326171875
-0.0005035400390625
-1.3887882232666016e-05
-0.00119781494140625
0.0003719329833984375
-0.000957489013671875
-0.00017452239990234375
-0.002349853515625
5.745887756347656e-05
-0.000370025634765625
-0.006378173828125
-5.53131103515625e-05
-7.534027099609375e-05
-6.437301635742188e-05
-0.0004329681396484375
-5.3882598876953125e-05
-0.002685546875
0.00091552734375
-0.0009613037109375
0.0003814697265625
1.728534698486328e-05
0.000102996826171875
0.00170135498046875
-0.000751495361328125
0.000152587890625
-0.00058746337890625
-0.0007171630859375
-0.000392913818359375
8.106231689453125e-05
0.0002956390380859375
-0.00020122528076171875
-0.0002651214599609375
0.0013427734375
-0.0011444091796875
-1.0132789611816406e-05
2.2798776626586914e-06
0.0003757476806640625
0.0004024505615234375
4.6253204345703125e-05
0.00014781951904296875
0.000576019287109375
0.00107574462890625
0.0002727508544921875
0.0002651214599609375
0.00165557861328125
0.0005645751953125
-6.031990051269531e-05
0.000423431396484375
0.008544921875
0.00010061264038085938
-0.00061798095703125
3.9637088775634766e-06
0.0007476806640625
-0.00012874603271484375
-5.888938903808594e-05
1.4126300811767578e-05
0.00010776519775390625
5.817413330078125e-05
0.00384521484375
-0.0007476806640625
-2.765655517578125e-05
3.7103891372680664e-06
0.00021076202392578125
0.0002727508544921875
5.990266799926758e-06
0.001312255859375
5.245208740234375e-05
-0.00152587890625
-6.389617919921875e-05
-1.239776611328125e-05
-0.000522613525390625
0.0002899169921875
-0.00022983551025390625
-0.00017642974853515625
-0.0002765655517578125
-0.000858306884765625
-0.000213623046875
0.0001163482666015625
0.0018157958984375
-0.00087738037109375
-0.000484466552734375
-0.000637054443359375
0.0025634765625
0.000335693359375
0.00022029876708984375
-4.887580871582031e-05
0.00115966796875
-0.000637054443359375
-0.000789642333984375
1.3113021850585938e-06
0.00107574462890625
0.001068115234375
-0.0013427734375
0.00025177001953125
0.0004405975341796875
1.8358230590820312e-05
-0.0003871917724609375
0.00013637542724609375
-0.00066375732421875
-0.0003643035888671875
0.0005645751953125
-0.001251220703125
-0.000705718994140625
0.00024318695068359375
0.00104522705078125
-7.092952728271484e-06
-6.866455078125e-05
0.00023174285888671875
-4.458427429199219e-05
-0.00054931640625
-0.000263214111328125
0.0004730224609375
-0.0021514892578125
0.00018405914306640625
9.72747802734375e-05
-0.05029296875
-0.000484466552734375
-0.00121307373046875
6.246566772460938e-05
0.0016937255859375
-4.220008850097656e-05
0.00128173828125
-0.0002498626708984375
-0.00738525390625
5.817413330078125e-05
-0.00151824951171875
-0.00010442733764648438
-0.00015926361083984375
-5.841255187988281e-06
-0.0005950927734375
1.8835067749023438e-05
-0.000274658203125
-0.00014209747314453125
-0.0003147125244140625
-0.0028533935546875
-0.0029754638671875
4.6253204345703125e-05
0.000690460205078125
0.00018310546875
5.173683166503906e-05
-0.0003147125244140625
-2.396106719970703e-05
-0.000274658203125
-0.000782012939453125
-0.0008087158203125
0.00102996826171875
-0.00104522705078125
-0.0004119873046875
-0.0013885498046875
0.0005035400390625
-0.0009002685546875
-4.7206878662109375e-05
0.00041961669921875
-0.000331878662109375
-0.00020503997802734375
0.00103759765625
-0.0023193359375
0.0003376007080078125
-0.000530242919921875
0.00011968612670898438
0.0001659393310546875
0.00012302398681640625
0.00046539306640625
-3.910064697265625e-05
0.0003910064697265625
-0.000377655029296875
0.00070953369140625
0.00031280517578125
-2.3484230041503906e-05
-0.0001811981201171875
0.000244140625
8.821487426757812e-06
-7.12275505065918e-06
-0.0031585693359375
0.00102996826171875
-0.00012969970703125
-0.000316619873046875
-0.000762939453125
-0.0067138671875
0.000400543212890625
0.00086212158203125
0.00025177001953125
-0.00021839141845703125
9.015202522277832e-07
-0.00011777877807617188
-5.650520324707031e-05
9.417533874511719e-06
-8.535385131835938e-05
0.0255126953125
-0.00011444091796875
0.00099945068359375
0.0003757476806640625
0.00164794921875
0.00104522705078125
-0.00016880035400390625
6.198883056640625e-05
0.0003643035888671875
-0.00031280517578125
-9.012222290039062e-05
-0.000850677490234375
-0.000537872314453125
-0.00274658203125
0.000209808349609375
-0.004730224609375
0.000492095947265625
-5.185604095458984e-06
0.00013256072998046875
0.000202178955078125
-0.00022602081298828125
0.00081634521484375
4.172325134277344e-05
0.00064849853515625
0.0084228515625
1.245737075805664e-05
0.001861572265625
8.487701416015625e-05
-0.0003299713134765625
0.00101470947265625
-8.392333984375e-05
0.00118255615234375
-0.00182342529296875
0.007720947265625
-0.000225067138671875
-0.00025177001953125
0.00162506103515625
-0.00058746337890625
0.0007781982421875
0.0021514892578125
-0.00099945068359375
-0.00127410888671875
-0.0004177093505859375
4.601478576660156e-05
0.000339508056640625
-0.00014972686767578125
8.630752563476562e-05
-0.00096893310546875
-0.00066375732421875
0.00014495849609375
-0.00030517578125
-0.0005035400390625
0.00154876708984375
-0.0029449462890625
2.765655517578125e-05
-0.0002498626708984375
-0.0010528564453125
3.039836883544922e-05
0.006011962890625
0.0009765625
5.841255187988281e-06
